100 30
25 -0.70388561 -0.39398095 -0.087693058 -0.12941177 0.11381249 -0.39435351 0.53318352 0.0059632896 0.06835027 0.35128173 0.1364079 0.61290216 0.24891163 -0.17405884 0.36495379 -0.61308885 -0.46975002 -0.21672566 0.036766674 0.4732691 0.81804019 -0.13990769 0.93474269 0.34004194 0.47749043 0.038961321 -0.41765979 0.011774554 -0.41197395 -0.24948673
15 -0.56335258 -0.48937577 0.093097165 -0.10790479 0.18304978 -0.25371346 0.51441002 -0.045804147 0.23902018 0.41360661 0.16035393 0.7491681 0.16272379 -0.29021001 0.49210611 -0.69781268 -0.35793722 -0.54457551 -0.019582782 0.45939511 0.90537113 0.028168654 0.76130331 0.49307677 0.49950066 0.077478267 -0.59630334 -0.18780735 -0.42101362 -0.06701614
18 -0.20361975 -0.71290368 0.3932693 -0.067215309 0.071849808 0.29689232 0.091875665 -0.25299951 0.53506166 0.50091517 -0.14397427 0.91010362 0.41938534 -0.36718264 0.41155288 -0.51029032 -0.42912111 -0.43601319 -0.28960299 0.5961684 0.43941146 -0.23909552 0.75663096 -0.099709637 0.21416058 0.52428108 -0.86407119 -0.47104633 -0.26989439 -0.2911534
17 -0.36428931 -0.61227095 0.33722958 -0.078111053 0.052869577 0.14937241 0.31789604 -0.23738755 0.39867124 0.4926824 -0.060114041 0.91091347 0.4339835 -0.31251949 0.44197935 -0.6506772 -0.43254784 -0.51542103 -0.1556682 0.63035655 0.5721525 -0.18119501 0.87652737 0.12577978 0.38300467 0.3571988 -0.86328852 -0.46544406 -0.38107559 -0.33922976
36 -0.60754085 -0.40087003 0.018591121 -0.25035873 0.16582605 -0.16762215 0.54782474 -0.094046175 0.069074608 0.36908525 0.021775234 0.58476686 0.53741449 -0.087783627 0.28420293 -0.49525297 -0.56797183 -0.041543789 0.10246298 0.68087018 0.3784692 -0.16390754 0.96061653 0.10643945 0.62747538 0.14460982 -0.58864808 0.0079031512 -0.3002291 -0.46238664
35 -0.72019786 -0.33960405 -0.15905322 -0.15033586 0.17108478 -0.38422209 0.62599397 -0.0050105411 -0.0017925561 0.37181798 0.14064392 0.60237461 0.35620534 -0.10588214 0.33498397 -0.52783155 -0.53166515 -0.065561131 0.073062055 0.62274623 0.63686615 -0.18988933 0.9809373 0.24034175 0.65902454 0.097856276 -0.48229295 0.11986032 -0.39635202 -0.3682209
72 0.2628741 -1.3962859 0.14633784 -0.88191497 0.090148106 0.29802966 -0.092157766 0.24653855 0.56767792 0.52413607 -0.46241477 -0.0034405678 0.9845854 0.20963304 0.5511536 0.7938447 0.2064424 0.54363769 -0.55552042 -0.25308582 0.55592424 -0.36648738 -0.0081711803 -0.3642627 0.55928355 0.14281236 0.48990068 0.68438095 -0.52539557 -0.41922727
83 0.13216002 -1.2639633 0.36705083 -0.592336 0.16994523 0.360939 -0.23998503 0.0066186832 0.40495709 0.62460262 -0.25461459 -0.078346871 0.711954 0.096673317 0.72294223 1.0057496 0.26186875 0.55490756 -0.63758177 -0.50092655 0.6607824 -0.17831908 -0.096163966 -0.35435912 0.25397357 0.13408484 0.21352886 0.5212729 -0.65346843 -0.45491174
38 -0.5666548 -0.54779202 0.4676241 -0.15649539 0.02877239 0.21995395 0.20577519 -0.42091221 0.13619345 0.16855568 -0.0249788 0.68220973 0.76196641 -0.27162597 0.32530454 -0.48271319 -0.68727183 -0.01626046 0.016920472 0.52696639 0.18596736 -0.29989487 0.86180747 -0.2965551 0.17342882 0.39372993 -0.81281823 -0.33284315 -0.13912781 -1.028247
26 -0.4834491 -0.52328855 0.22137503 -0.22165139 0.084415376 -0.021470152 0.44237104 -0.16061085 0.23250216 0.35009274 0.025476439 0.71823996 0.50351006 -0.27681935 0.39337805 -0.65087819 -0.44154915 -0.34700686 0.036376409 0.58998251 0.5638929 -0.059654005 0.85014659 0.24751629 0.50484616 0.15995079 -0.67242068 -0.27521136 -0.33908111 -0.39011449
71 0.31840271 -1.5159773 0.043706909 -0.9493826 0.059549619 0.28263855 -0.073459461 0.30637026 0.65057898 0.55610132 -0.63784546 0.030835569 1.0164529 0.25383469 0.47067609 0.67532963 0.16301025 0.43976501 -0.56805593 -0.28799015 0.72202921 -0.47486055 -0.0022328491 -0.32760641 0.5300985 0.097700052 0.63163692 0.71225834 -0.52792114 -0.23883429
27 -0.41804042 -0.57600814 0.30234042 -0.15736654 0.073589429 0.17022036 0.29437846 -0.2583743 0.23383148 0.36929706 -0.10010523 0.70999318 0.50946802 -0.20729142 0.32321796 -0.52904612 -0.46011627 -0.26579496 -0.081045628 0.54114455 0.36614388 -0.19909278 0.80358416 -0.029438313 0.33101517 0.3105849 -0.78818631 -0.30249345 -0.28153101 -0.49450368
48 -0.49509484 -0.605645 0.37360811 -0.27978429 0.070461005 0.39988071 0.28700638 -0.40875593 0.1663985 0.24925187 -0.16021074 0.55182922 0.91803223 -0.13664287 0.31472218 -0.2950103 -0.64311606 0.1097782 0.00011717668 0.59689885 0.018422596 -0.2796593 0.7157889 -0.41772398 0.43925905 0.31797302 -0.7467494 -0.14164037 -0.20271412 -0.89758331
28 -0.36079574 -0.61084116 0.43148336 -0.10287521 0.11300299 0.38239479 0.16522841 -0.37921089 0.29698285 0.35181469 -0.13262816 0.75776827 0.62280023 -0.22936966 0.32440051 -0.37689641 -0.56204748 -0.17408875 -0.14576021 0.64374661 0.17851101 -0.28068927 0.76266289 -0.28355759 0.20743972 0.50187063 -0.91844517 -0.329283 -0.17535658 -0.60574913
81 0.28309265 -1.6321162 0.072513677 -0.83504212 0.12098937 0.31863078 -0.12746136 0.22549394 0.51436573 0.62493533 -0.59457809 -0.075204842 0.71177787 0.24773546 0.39394605 0.65579933 0.19310835 0.30095255 -0.61648917 -0.53907484 1.0277532 -0.47610918 -0.077426814 -0.23986611 0.27986062 0.13126549 0.62264997 0.56466091 -0.61406708 0.03635959
16 -0.3998253 -0.57745099 0.25383174 -0.093524389 0.078831956 0.012456845 0.33270136 -0.1745812 0.329579 0.41217169 -0.0078293364 0.81065387 0.29347411 -0.30724785 0.43068612 -0.66944039 -0.40716326 -0.52695239 -0.11473953 0.50007826 0.6351043 -0.086145334 0.77224058 0.21611591 0.37762773 0.26211479 -0.69462782 -0.35816547 -0.35907277 -0.24994536
37 -0.56646055 -0.51047736 0.26217768 -0.26432481 0.10013281 0.16333058 0.34028831 -0.25516012 0.15396902 0.32003498 -0.070850812 0.6056174 0.71533489 -0.14202835 0.24578908 -0.42753011 -0.53044927 0.010413744 0.077196293 0.61448222 0.16025592 -0.21569185 0.84253329 -0.06631393 0.45076713 0.24047133 -0.64245641 -0.15517844 -0.22745138 -0.66374725
47 -0.53544003 -0.54164976 0.14716221 -0.4060362 0.028718095 0.10535916 0.45637244 -0.15662618 0.17021123 0.23826088 -0.048620827 0.51087213 0.85774899 -0.12616335 0.21816032 -0.41664705 -0.6145789 0.11275279 0.23608799 0.73317856 0.04003071 -0.18056941 0.8530274 -0.15842597 0.77392256 0.1520347 -0.46364188 0.0096116671 -0.18822587 -0.75240302
82 0.21407177 -1.3878087 0.28150198 -0.73532379 0.11524998 0.39378479 -0.16121188 0.07175336 0.45131621 0.61188835 -0.43234429 -0.060938478 0.83412004 0.19484447 0.60582572 0.86614329 0.23543954 0.48870754 -0.62238622 -0.45117384 0.6916669 -0.31359628 -0.07622043 -0.32108882 0.25346601 0.13626122 0.35998613 0.53135103 -0.59263659 -0.36732867
58 -0.47071719 -0.50268656 0.37226275 -0.33645558 0.076458395 0.3363516 0.33308107 -0.29485059 0.118812 0.13591026 0.0086832792 0.30944231 1.0710493 -0.064440526 0.52481186 -0.069798797 -0.58744115 0.35766199 0.098656259 0.39607987 -0.035162602 -0.22473793 0.61967093 -0.45810488 0.51386249 0.21098509 -0.56021088 0.051750503 -0.12639217 -1.1480744
24 -0.76807916 -0.41330945 0.026585428 -0.19439065 0.11131924 -0.44825575 0.4996056 0.065564141 0.053966701 0.29910156 0.2072302 0.622347 0.24746697 -0.26972216 0.33682337 -0.66223943 -0.44408184 -0.18555024 0.14311369 0.283407 0.96600038 -0.068496369 0.86169755 0.46311525 0.38078326 -0.02732848 -0.24265066 0.052353945 -0.34469312 -0.29557171
14 -0.75744081 -0.51885498 0.14565036 -0.15681325 0.087681361 -0.44590244 0.41422909 0.029542932 0.12919302 0.31806403 0.19545726 0.79321748 0.11243461 -0.39152649 0.3886207 -0.82617676 -0.39431658 -0.42987508 0.085137933 0.26533389 1.1082392 -0.032662772 0.86029732 0.56215531 0.26850414 0.032842997 -0.32874563 -0.1160299 -0.38929752 -0.22773701
34 -0.77189475 -0.28744483 -0.2492412 -0.082454436 0.2605834 -0.52864754 0.63004744 0.059461772 -0.044133902 0.42247528 0.11870821 0.58035147 0.23504893 -0.07723444 0.31300262 -0.44874132 -0.53410512 -0.018487625 0.039039452 0.62550187 0.73596859 -0.24140975 1.061341 0.22255424 0.57077742 0.094695233 -0.44999018 0.19978207 -0.41341156 -0.20528302
11 -0.77713525 -0.81295341 -0.16533494 -0.17661448 -0.36847076 -0.78387433 0.21078128 0.35095063 -0.0010394044 0.068253674 0.22121134 0.51425231 -0.030118089 -0.28247342 0.21188083 -0.76655471 -0.30790222 -0.10795897 -0.15676138 -0.44553885 1.3414513 -0.50967216 0.86878514 0.39639318 -0.21332204 -0.056037884 0.52007973 0.087088898 -0.39386657 -0.62647301
32 -0.72336668 -0.52446878 -0.50274509 0.078280926 -0.022262979 -0.77665037 0.45496696 0.26131946 -0.1582212 0.22767584 0.20663585 0.37222913 -0.087990381 -0.13538365 0.30679783 -0.36395913 -0.55346358 -0.023426378 -0.34480354 -0.034997247 1.079837 -0.50808048 0.90917158 0.11966885 0.11866881 0.067258507 0.059617914 0.38543764 -0.43760943 -0.31729525
33 -0.78323174 -0.37368149 -0.37156367 0.016151221 0.14763781 -0.72745019 0.56543607 0.21430384 -0.10410161 0.32069361 0.22905366 0.46964216 0.061720401 -0.13139455 0.37818602 -0.41994694 -0.57788908 -0.014185217 -0.13177297 0.28108278 1.0121081 -0.36808035 1.0349598 0.21778949 0.37171629 0.069644071 -0.20287679 0.33875632 -0.42504427 -0.2501218
22 -0.80199838 -0.65943974 -0.26381087 -0.086966731 -0.15921126 -0.85223383 0.32698065 0.29305649 -0.11863465 0.18376258 0.21192873 0.47458801 -0.053275879 -0.26878807 0.28540128 -0.60355532 -0.45785487 -0.089067325 -0.16189997 -0.23477188 1.3756603 -0.45360827 0.95491654 0.35075456 -0.083294153 0.0076866928 0.26508263 0.2360305 -0.40656739 -0.39352751
23 -0.85168213 -0.435729 -0.12937367 -0.13928474 0.05818079 -0.64230824 0.46458912 0.16299023 -0.015562358 0.30631796 0.22022055 0.64337665 0.10977878 -0.28610811 0.3288871 -0.64569288 -0.50317729 -0.14418246 0.062710136 0.21777494 1.167627 -0.21393631 0.98389363 0.4704574 0.24099739 -0.010727296 -0.16505903 0.12848635 -0.41068017 -0.28102031
31 -0.73469639 -0.72581828 -0.52026099 0.0088026803 -0.15966691 -0.9988417 0.37236112 0.40025771 -0.18104668 0.22135435 0.2546075 0.33124593 -0.1376093 -0.14671972 0.36983541 -0.43621707 -0.43010223 0.0042357901 -0.4406499 -0.40653744 1.4791092 -0.64391667 0.92557198 0.30614185 -0.042655613 0.0075591099 0.44521263 0.45301464 -0.57885861 -0.4227843
62 0.25071266 -1.4019998 0.13116673 -0.90443677 0.076243848 0.3354657 -0.055542264 0.23357275 0.56365085 0.50166386 -0.50394171 -0.016854338 1.0934201 0.2403412 0.50702506 0.81679136 0.10477838 0.58148211 -0.50142944 -0.19492666 0.52928454 -0.38286436 0.034745138 -0.41497707 0.60998923 0.13537391 0.45117846 0.70541561 -0.5279541 -0.44880632
63 0.15513346 -1.2160226 0.13074675 -0.8455618 0.097263418 0.23648532 0.053578004 0.24729802 0.50151181 0.43581519 -0.33009529 -0.050643273 1.0972365 0.20704126 0.49409002 0.71108568 0.073133238 0.60990977 -0.36677286 -0.044797279 0.31551141 -0.28408098 0.12000485 -0.34267431 0.70337641 0.14851238 0.37229174 0.71599758 -0.41661346 -0.55153215
12 -0.76943886 -0.69742638 -0.032208525 -0.21812424 -0.24070586 -0.63836032 0.26262024 0.21650565 0.019859072 0.16620229 0.2211775 0.6061753 0.036030486 -0.33133107 0.22107664 -0.77891713 -0.36764893 -0.19672929 -0.013072447 -0.19129953 1.2162298 -0.31405026 0.8749069 0.4355388 -0.062143717 -0.036388032 0.23481232 0.015505719 -0.33737975 -0.47543108
21 -0.75392586 -0.72684264 -0.33242381 -0.13758309 -0.27523214 -0.83056045 0.33519894 0.33573765 -0.065929741 0.17473407 0.23271528 0.45358405 -0.045076791 -0.21884792 0.26715681 -0.62688178 -0.36612934 -0.055520914 -0.22712821 -0.30087131 1.3272039 -0.54650956 0.92352033 0.34438917 -0.050108362 -0.026101878 0.43835229 0.20985565 -0.45780906 -0.51474625
13 -0.75037211 -0.59962785 0.093482792 -0.22031726 -0.022086356 -0.56518734 0.3605971 0.16111611 0.15180972 0.32134208 0.20225911 0.7532084 0.06233665 -0.40798721 0.32132691 -0.85072345 -0.36475024 -0.38101342 0.066391565 0.096607916 1.2500962 -0.1250871 0.86090332 0.59980112 0.12203712 -0.012961856 -0.080585212 -0.046180058 -0.34687954 -0.21709092
94 0.10875345 -1.2153134 0.48190454 -0.45246699 0.18952096 0.2821779 -0.34286356 -0.065428518 0.3203581 0.63697189 -0.12802038 -0.10205074 0.58759898 0.10939303 1.0006191 1.0299296 0.47780314 0.46152624 -0.78529358 -0.74020994 0.82253647 -0.17955869 -0.17483291 -0.17995128 -0.12840936 0.2275832 0.043336965 0.31959957 -0.71768278 -0.58462524
49 -0.45148256 -0.56766844 0.49712187 -0.21240483 0.12988824 0.42754537 0.20896758 -0.43477193 0.19710995 0.18540998 -0.072892182 0.52923387 0.92163432 -0.16319038 0.44278833 -0.16611271 -0.66146249 0.18908608 -0.026892507 0.51261526 0.0028281645 -0.29035157 0.67659366 -0.52978569 0.33124113 0.37409174 -0.79878402 -0.16570666 -0.12638126 -1.0689793
98 -0.057065468 -0.78347611 0.52886337 -0.17757481 0.27317604 -0.0083432887 -0.27619094 -0.098303616 0.19308373 0.51880544 0.15144934 0.014620047 0.73693705 0.19566149 1.6058391 0.55868161 0.74190408 0.06407886 -0.83140737 -0.81603873 0.90919149 -0.42820674 -0.12020917 0.26801094 -0.71194631 0.44753525 -0.31460285 -0.18207119 -0.61569434 -1.1226891
70 0.31916302 -1.5955961 -0.033236466 -0.94891763 0.059293583 0.20256603 -0.06895186 0.37780404 0.64901865 0.58851904 -0.68565941 0.085475959 0.84625649 0.23698902 0.36147654 0.55697048 0.16408823 0.31502333 -0.58060116 -0.31013581 0.8976754 -0.52601433 0.026963066 -0.27980685 0.52039731 0.084970094 0.68542081 0.6653105 -0.55412906 -0.068086654
93 0.15027557 -1.292351 0.40716985 -0.5646106 0.1311821 0.360421 -0.2727758 -0.0034183888 0.37938878 0.66543996 -0.29753315 -0.070738524 0.63220704 0.11974652 0.7938953 0.93697017 0.32682595 0.45426804 -0.72867024 -0.62623495 0.85807991 -0.25497812 -0.084610157 -0.27922291 0.05402299 0.14538774 0.21342862 0.43256918 -0.6671586 -0.40060529
95 0.069933362 -1.1019795 0.49249855 -0.34725684 0.19443193 0.16123304 -0.32035309 -0.038367867 0.32963485 0.6101045 -0.1204055 -0.1005598 0.52158475 0.092053443 1.0315355 0.97869426 0.51456577 0.42382333 -0.77719271 -0.75899118 0.85757881 -0.18821822 -0.16730599 -0.1161681 -0.2219995 0.17794366 0.0087658847 0.27344453 -0.72925401 -0.61480814
96 0.010455562 -1.0309411 0.52032942 -0.26423159 0.20498487 0.0015427914 -0.35946581 -0.066839218 0.28075531 0.57752156 -0.024800587 -0.043235749 0.49698871 0.092783108 1.2990481 0.89550763 0.65449566 0.3158136 -0.87760353 -0.82519954 0.98394668 -0.23951618 -0.17912443 0.019701079 -0.44679502 0.28635994 -0.10887016 0.11504196 -0.75770301 -0.76393658
84 0.090099134 -1.2003392 0.4390274 -0.45057058 0.19055048 0.27517253 -0.28852683 -0.028771244 0.32278985 0.60501331 -0.18072394 -0.14011578 0.58961749 0.1145498 0.85892069 1.004427 0.40922022 0.51129484 -0.69644606 -0.64905238 0.75960284 -0.17250019 -0.13491103 -0.2175823 -0.01489155 0.14890943 0.12320887 0.40791547 -0.66443968 -0.50490063
61 0.28841892 -1.4946558 0.028887108 -0.96484762 0.054547377 0.22570284 -0.03063071 0.34540021 0.65049338 0.49713188 -0.61300385 0.026127173 0.99550825 0.22567718 0.40698409 0.63109046 0.11882238 0.4682166 -0.50042468 -0.16938567 0.61091107 -0.47330862 0.058014479 -0.37638709 0.65358728 0.087980032 0.5787434 0.70156407 -0.47328842 -0.28735635
39 -0.59439355 -0.61628705 0.53348511 -0.14309542 0.14271878 0.4041158 0.21969837 -0.49045274 0.20506254 0.3050949 -0.086717911 0.75477928 0.8092891 -0.27441657 0.46423811 -0.40007913 -0.70152384 -0.045841496 -0.12274983 0.58114845 0.22010919 -0.30803424 0.80950385 -0.3682586 0.1536888 0.45614102 -1.0025769 -0.32260856 -0.22081085 -0.96912408
97 -0.080079041 -0.85897177 0.55562294 -0.16275156 0.26266736 -0.040257022 -0.32172999 -0.1205621 0.21931642 0.57554865 0.13856664 0.011377215 0.57832438 0.13870642 1.5223415 0.72231102 0.73266971 0.14971738 -0.89711589 -0.89155817 1.0117999 -0.35519686 -0.14174779 0.18947884 -0.67322969 0.36428985 -0.26883081 -0.099750318 -0.72591263 -1.001616
80 0.26338288 -1.6430473 0.015726931 -0.80845124 0.10519071 0.3091085 -0.098445386 0.24244922 0.53786123 0.62802386 -0.6639998 -0.014832142 0.68683457 0.25979149 0.36030933 0.55984801 0.19326682 0.255934 -0.64081013 -0.56629264 1.0655155 -0.51942438 -0.061456829 -0.18615332 0.23802678 0.10563999 0.66328877 0.55780911 -0.58984959 0.060459051
7 -0.27142209 -0.70759338 0.39722309 -0.047003172 0.0046058595 0.21109253 0.17249028 -0.24380192 0.50575972 0.43047845 -0.050176423 0.95437437 0.31053093 -0.43091556 0.44972876 -0.70455736 -0.37182504 -0.62122619 -0.23402251 0.49090198 0.59672678 -0.19436096 0.74524581 0.1397264 0.21013357 0.39540911 -0.83304113 -0.569197 -0.328803 -0.32931706
88 -0.057547618 -0.74766213 0.5432958 -0.12918481 0.24797454 0.019549344 -0.31092793 -0.12390295 0.14436211 0.51777667 0.15666448 0.015489132 0.617428 0.1937616 1.5638974 0.59430104 0.73211998 0.058247231 -0.82681948 -0.83912635 0.93012369 -0.37388375 -0.15992723 0.25176698 -0.72739911 0.41766259 -0.3251408 -0.19845167 -0.60610515 -1.0453136
6 -0.3773233 -0.66799754 0.3172074 0.0047663692 0.12661617 -0.051628999 0.30670726 -0.12599538 0.48557934 0.53077728 0.091650076 0.98723048 0.16169666 -0.46449018 0.62192518 -0.76797312 -0.30967361 -0.78683543 -0.1952118 0.46284637 0.89118785 -0.049982078 0.72719216 0.38552898 0.31452897 0.28964695 -0.79565418 -0.50808865 -0.42602813 -0.058203284
45 -0.78554732 -0.35248345 -0.33400279 -0.23303464 0.17748924 -0.53169876 0.66417539 0.12823875 -0.064688273 0.34080786 0.10657195 0.49249405 0.40345365 0.00093709439 0.21722512 -0.42001012 -0.57351977 0.17397211 0.095701903 0.63770199 0.5637272 -0.31999499 1.0596495 0.1102796 0.67001206 0.067073092 -0.29256409 0.30807132 -0.3657302 -0.39678088
73 0.21351968 -1.2769183 0.2379192 -0.8008166 0.10579738 0.36702937 -0.083112918 0.15164243 0.49274495 0.49377376 -0.41335717 -0.021003261 0.96325332 0.18256426 0.54786557 0.77707756 0.13574728 0.50677264 -0.5058983 -0.22873314 0.49762461 -0.29070008 0.01022437 -0.37703103 0.48890933 0.15046537 0.32892695 0.6080144 -0.47739735 -0.44934461
46 -0.71499515 -0.38633004 -0.19021592 -0.18781598 0.14615868 -0.23973335 0.64531946 -0.015804144 -0.036692139 0.35038975 0.064608909 0.51457596 0.50619709 0.030106246 0.18049866 -0.40231785 -0.579786 0.13222228 0.068433754 0.70147842 0.30869889 -0.34055787 1.0136638 0.01329092 0.76049995 0.10904165 -0.4533101 0.18042976 -0.34369418 -0.51902539
91 0.2038278 -1.5133882 0.16818646 -0.69933504 0.13653995 0.35929394 -0.13922055 0.089071915 0.45254108 0.65123689 -0.50684071 -0.095286578 0.71304566 0.24761738 0.49702206 0.63590795 0.233319 0.27714694 -0.64185208 -0.62205982 1.0044703 -0.4452197 -0.075656191 -0.16802126 0.074964568 0.1574042 0.48178589 0.45427293 -0.60312414 -0.089712314
59 -0.46686873 -0.48107049 0.51902825 -0.29440895 0.12906931 0.49954161 0.24572448 -0.44366696 0.12566359 0.10846508 -0.085857704 0.37739468 1.1292137 -0.12394813 0.4999963 -0.025570823 -0.63363767 0.35656556 0.061995696 0.44184116 -0.067559004 -0.21972597 0.5573622 -0.59956825 0.37840322 0.2926611 -0.72223163 -0.035327207 -0.075755797 -1.2508558
68 -0.44724238 -0.58173382 0.38320309 -0.38576221 0.15619892 0.38740814 0.31728208 -0.31250224 0.13546202 0.16737069 -0.063919619 0.26008436 1.2191569 -0.042141777 0.59617209 0.14930835 -0.59838259 0.52177173 0.049606621 0.43569511 -0.081813909 -0.22186571 0.6087867 -0.56165588 0.54656005 0.27100876 -0.56284302 0.18939684 -0.13757578 -1.2172703
29 -0.35838592 -0.58861792 0.38358274 -0.04076327 0.15975714 0.33397532 0.14079884 -0.42298028 0.30357629 0.38911626 -0.12329726 0.78937083 0.60544598 -0.25371081 0.41615719 -0.31620499 -0.62652647 -0.16475962 -0.23262702 0.64657587 0.23320951 -0.34964815 0.77376455 -0.36450198 0.15121293 0.55535638 -1.0161161 -0.34911284 -0.20148335 -0.66017115
87 -0.065846898 -0.94321477 0.57673591 -0.1732837 0.23392262 0.018753225 -0.36480483 -0.11554064 0.24962986 0.58976644 0.082750738 -0.021187393 0.57061315 0.12498894 1.5008405 0.8080374 0.70664412 0.20649101 -0.89423871 -0.91646087 1.035689 -0.32431325 -0.18825322 0.1434357 -0.63559759 0.35899097 -0.23307836 -0.030640639 -0.7351343 -0.96631712
19 -0.14078151 -0.7590403 0.57613862 -0.082781173 0.15597913 0.47573635 0.053698152 -0.42064068 0.56791282 0.5507341 -0.22178663 0.92643845 0.58083588 -0.32167017 0.5344559 -0.34914023 -0.44693092 -0.40533715 -0.32153463 0.66038275 0.35473499 -0.26553217 0.70137161 -0.22711673 0.17326055 0.62922984 -1.0943393 -0.52290839 -0.30802518 -0.44780466
92 0.21548457 -1.5123242 0.26694942 -0.7146017 0.14552762 0.41431805 -0.23809056 0.041113872 0.42670691 0.70049363 -0.41520655 -0.093547538 0.6616379 0.19702396 0.65310693 0.90139151 0.3092759 0.40554872 -0.73331541 -0.70760339 0.95184016 -0.33398938 -0.13926631 -0.27337241 0.10440712 0.15566806 0.40950054 0.52746773 -0.6715858 -0.20533885
57 -0.40158573 -0.53550637 0.11640212 -0.40283519 0.060775496 0.14663559 0.40002391 -0.10876693 0.17862271 0.18092862 -0.036107179 0.3020483 0.91343415 -0.076406576 0.30177557 -0.16345793 -0.56058609 0.28244931 0.15126644 0.55172622 0.010904485 -0.16176426 0.70553303 -0.2722477 0.71607333 0.16394524 -0.35430455 0.21684846 -0.1455057 -0.78054386
8 -0.15014553 -0.84245616 0.55555969 -0.084671386 0.071114138 0.41140649 0.10620186 -0.31992608 0.6255644 0.56201643 -0.17306952 0.97509485 0.45291996 -0.38925421 0.5477562 -0.53509974 -0.35693586 -0.57511991 -0.28563702 0.62749249 0.45865101 -0.20683025 0.69251889 -0.074206375 0.24075748 0.56932449 -0.99924695 -0.56787115 -0.34556657 -0.32656309
67 -0.24233761 -0.63624763 0.33296505 -0.48063967 0.13870013 0.37228698 0.30639619 -0.18973431 0.31182402 0.21111387 -0.083467752 0.17908671 1.1714333 -0.027521111 0.46722043 0.16633724 -0.43465352 0.42073482 0.097707093 0.48940492 -0.18174009 -0.13426088 0.47510368 -0.47000766 0.80233061 0.22545694 -0.37622723 0.24862634 -0.11560379 -0.92313743
5 -0.48949239 -0.59432459 0.23070484 0.0033675418 0.09055391 -0.1674701 0.32794431 -0.13893335 0.36203951 0.38591015 0.16982439 0.92284763 0.080771886 -0.44131747 0.55336291 -0.83227557 -0.35071796 -0.71646976 -0.16117817 0.34125677 1.0011207 -0.050854851 0.71699357 0.46197143 0.22911584 0.20732479 -0.64721334 -0.43240491 -0.4140673 -0.20025684
44 -0.75673532 -0.29148826 -0.44484222 -0.070053853 0.19047022 -0.68809408 0.59739089 0.19255532 -0.10055608 0.38232979 0.19362819 0.48406062 0.15250199 -0.027082188 0.29934055 -0.33489311 -0.60474902 0.10586383 -0.052711643 0.49361771 0.78688848 -0.37298474 1.0644629 0.16215321 0.53615195 0.10223695 -0.25395608 0.39531451 -0.39548713 -0.2853637
86 -0.013652091 -0.9261328 0.57429159 -0.17988724 0.21067458 0.046060208 -0.34123164 -0.14107892 0.24987555 0.55296504 0.031483136 -0.044401664 0.54208648 0.092579581 1.2975973 0.91280091 0.6218521 0.35564435 -0.82747155 -0.78859454 0.84603041 -0.2127414 -0.16325873 -0.024551978 -0.46412757 0.28048465 -0.20270874 0.079670973 -0.72229528 -0.84577864
85 0.016059972 -1.0314697 0.51011014 -0.29800886 0.18138593 0.051013321 -0.33115971 -0.069606826 0.28488514 0.55439657 -0.041315977 -0.080955014 0.55525553 0.1028049 1.2087584 0.94766498 0.54919964 0.4376106 -0.80552322 -0.72338021 0.81307864 -0.18615203 -0.17035164 -0.0976675 -0.26921782 0.22694926 -0.080550298 0.21237825 -0.71891105 -0.77687198
10 -0.80185211 -0.90316039 -0.13866831 -0.25538036 -0.39425391 -0.77790082 0.22690648 0.35098627 0.00085654954 0.034596473 0.25180081 0.51045036 -0.026852006 -0.28180659 0.1941949 -0.7783277 -0.2560735 -0.072589375 -0.14244041 -0.51200551 1.4456729 -0.52208042 0.88284761 0.48589712 -0.26929936 -0.090886034 0.64286476 0.069348566 -0.40930477 -0.69270337
43 -0.76210582 -0.40409458 -0.54556215 0.070713252 0.13897742 -0.74909741 0.59000885 0.20432995 -0.14728162 0.34181046 0.18817446 0.43218738 0.026324924 -0.047980029 0.31895396 -0.30449542 -0.66621351 0.072929308 -0.30657113 0.28078935 0.90088719 -0.54869467 1.0726312 0.018926898 0.36369482 0.17102769 -0.1870288 0.4282203 -0.46238044 -0.28911033
42 -0.6907264 -0.46314099 -0.55693638 0.14974536 -0.0038112744 -0.80261755 0.43957511 0.27431709 -0.16530262 0.2575945 0.22318879 0.36756718 -0.14833161 -0.094890267 0.32062164 -0.35821262 -0.59011567 -0.028472869 -0.39835793 -0.010589774 1.0860271 -0.63762814 0.99856436 0.084337428 0.12714541 0.12597212 0.0069056246 0.38696823 -0.47801077 -0.29618487
1 -0.76856959 -0.92524022 0.17535666 -0.34252831 -0.35629103 -0.59255576 0.14102572 0.25834438 0.16040851 0.1075222 0.18479741 0.6916362 0.1136845 -0.41472545 0.22504604 -0.93010056 -0.1980062 -0.25135574 0.0023235537 -0.38310093 1.3458076 -0.35930577 0.83221012 0.53611159 -0.22722127 -0.025342859 0.41569951 -0.13006684 -0.33162379 -0.66767383
4 -0.69207042 -0.6007036 0.19805935 -0.086556226 -0.0029601152 -0.42130247 0.28073445 0.076854952 0.21477903 0.27101237 0.25314653 0.84449083 0.061330754 -0.47523752 0.4282589 -0.88916498 -0.34058282 -0.55572671 -0.022972535 0.1253535 1.1792845 -0.12864187 0.74691653 0.5247919 0.085059673 0.087023519 -0.3105903 -0.23173855 -0.32272348 -0.30179203
3 -0.71011561 -0.71287435 0.19944529 -0.20745808 -0.14914741 -0.47552308 0.23479669 0.1435376 0.16605835 0.20338587 0.18958059 0.74628109 0.0074643688 -0.453284 0.27062297 -0.90651613 -0.28715861 -0.41074401 0.0076516243 -0.075473957 1.2153444 -0.20713142 0.82975918 0.54363465 -0.019788869 0.028973907 0.024813764 -0.14873141 -0.30378759 -0.36375874
2 -0.72600651 -0.81406045 0.12955411 -0.30347663 -0.32918936 -0.56697309 0.17436522 0.2557582 0.087055497 0.065870784 0.20839928 0.63750947 0.10636607 -0.4084937 0.19835113 -0.88596302 -0.24597649 -0.20879099 0.029575991 -0.31058612 1.2217683 -0.30872741 0.77599019 0.48046395 -0.18385696 -0.062508456 0.34886515 -0.10041436 -0.27441794 -0.60064572
20 -0.73315209 -0.90351552 -0.2664068 -0.17970185 -0.3762868 -0.82171583 0.26184696 0.37067458 -0.083296411 0.066961072 0.19612807 0.36392581 -0.00099235913 -0.20466277 0.24194334 -0.61092728 -0.29391763 -0.0085723605 -0.29164869 -0.53939587 1.388253 -0.60819048 0.87468547 0.34817922 -0.18521634 -0.032888774 0.63470232 0.1919248 -0.47072902 -0.68671161
41 -0.79535919 -0.6921944 -0.62849373 0.075086087 -0.041460894 -0.97203779 0.51014709 0.37326381 -0.23561558 0.1852933 0.24646944 0.24569164 -0.10772012 -0.043026697 0.37126967 -0.2419894 -0.52121401 0.13365151 -0.48532796 -0.22440143 1.2698274 -0.71894091 0.96115911 0.10622495 0.10639304 0.056932878 0.27199262 0.56133533 -0.56753027 -0.45618147
30 -0.71916413 -0.76442856 -0.5198034 0.011755697 -0.22551051 -0.95008302 0.36682677 0.38437438 -0.18660177 0.17967826 0.21080756 0.26854408 -0.14969641 -0.12598692 0.32526439 -0.41071048 -0.37414482 0.043815885 -0.45574114 -0.43110192 1.441415 -0.67867225 0.92923927 0.25145721 -0.10638219 -0.020364093 0.49886829 0.41061026 -0.56908065 -0.46616197
64 0.16739665 -1.2059667 0.22372147 -0.86905557 0.16284326 0.39752632 0.14425634 0.13266516 0.54847717 0.38803875 -0.34682018 -0.076280788 1.3958899 0.23865242 0.57085878 0.7122274 -0.029941667 0.62864172 -0.19553973 0.18828455 0.050706677 -0.24572545 0.15036559 -0.41977578 0.84075081 0.22508772 0.13795389 0.61843979 -0.30095759 -0.69461298
99 -0.16937007 -0.6517511 0.57837379 -0.057931766 0.2859771 -0.088243663 -0.26547879 -0.16039483 0.13777967 0.50508928 0.27146637 0.10043756 0.70998323 0.17467494 1.7537708 0.45319438 0.75116497 -0.041611467 -0.84054261 -0.81934232 0.95382476 -0.43983123 -0.060352087 0.37622845 -0.83808076 0.51075965 -0.47511891 -0.3348884 -0.600586 -1.2860963
65 0.10872256 -1.0739952 0.20229039 -0.78949815 0.15684183 0.39755014 0.17141125 0.070177414 0.51314217 0.32795206 -0.33272287 -0.022266008 1.3127339 0.18786062 0.37740853 0.56370056 -0.12652527 0.57076925 -0.064419478 0.33265615 -0.072793581 -0.21461876 0.24800871 -0.41835803 0.8996954 0.21971431 0.029746061 0.55161613 -0.22351363 -0.60461211
89 -0.12919365 -0.69788879 0.56747359 -0.11000285 0.27587152 -0.020704582 -0.29017794 -0.15023623 0.13343525 0.51925862 0.23181756 0.056951623 0.61759126 0.15292636 1.6371834 0.55046034 0.73801309 0.031084519 -0.83166254 -0.87355286 0.94019258 -0.39144537 -0.10775951 0.30421221 -0.79250264 0.44069943 -0.37249383 -0.24927686 -0.64218748 -1.1322522
66 -0.098748356 -0.79208094 0.26549608 -0.59310108 0.14831069 0.3417353 0.2423562 -0.062518448 0.32233566 0.28933302 -0.16484396 0.022657137 1.2393517 0.12467805 0.50048935 0.49647316 -0.28174216 0.61413085 0.011018886 0.4132784 -0.14811079 -0.13299575 0.35995153 -0.46532121 0.82910246 0.19989811 -0.22838806 0.4491393 -0.20443431 -0.8402918
60 0.26166573 -1.5409817 -0.010159498 -0.96577358 0.024377905 0.29575184 0.0085174348 0.32569787 0.66457462 0.54644591 -0.6824739 0.12054 0.96313709 0.18861522 0.30221862 0.54051226 -0.00083219988 0.3739965 -0.51126128 -0.18043455 0.72732306 -0.49633273 0.12402725 -0.37623018 0.66878331 0.087183639 0.63136137 0.72451061 -0.49608883 -0.14477573
90 0.25288311 -1.7626505 0.089060888 -0.83806962 0.14468914 0.38346338 -0.12659577 0.14256799 0.51277471 0.70154542 -0.65888005 -0.11907078 0.6495682 0.26722479 0.38672534 0.67001086 0.21290131 0.25669008 -0.68717587 -0.70889527 1.1949853 -0.51396161 -0.094131507 -0.20477746 0.11536227 0.12562148 0.63054663 0.55702287 -0.67611969 0.12119684
69 -0.56333917 -0.39645582 0.42839268 -0.23434386 0.13343407 0.38617796 0.34225419 -0.40989909 0.045515183 0.070259176 0.016680345 0.3512764 1.074883 -0.092512935 0.60931897 -0.036552139 -0.69963318 0.38078123 0.11245839 0.41083053 -0.0026300643 -0.19316936 0.6604197 -0.58344972 0.39667416 0.26882046 -0.71728891 -0.0035859377 -0.1191629 -1.2875006
9 -0.086529478 -0.79108125 0.49204028 -0.099067159 0.18075478 0.43966186 0.068654209 -0.31899893 0.67211837 0.64897609 -0.2368264 1.0054314 0.51882631 -0.35509774 0.5301066 -0.38353631 -0.36993977 -0.47277004 -0.38035855 0.70145655 0.43611881 -0.20559132 0.73763037 -0.13733774 0.24237402 0.63730419 -1.06084 -0.52831382 -0.35036251 -0.19684494
0 -0.72480148 -0.94347912 0.12694947 -0.35793325 -0.45955077 -0.59999108 0.099304423 0.29113135 0.12661478 0.02576587 0.22119899 0.63416249 0.02195712 -0.40603462 0.17423955 -0.96067697 -0.13746524 -0.25694945 -0.013422769 -0.48628581 1.3392452 -0.36698321 0.75702816 0.58045942 -0.31923324 -0.10228363 0.57545561 -0.16542818 -0.32544225 -0.63478351
40 -0.74100626 -0.74363142 -0.62912238 0.066395395 -0.10629625 -1.0035233 0.38630915 0.42126775 -0.2378647 0.19074909 0.2555103 0.18841654 -0.17583206 -0.079054154 0.41875592 -0.26590258 -0.40188792 0.056627601 -0.59020931 -0.45984614 1.4746696 -0.71228534 0.90274906 0.21172124 -0.055339854 0.024752326 0.41579399 0.51628631 -0.65388644 -0.46490824
79 -0.10437182 -0.31437662 0.16107406 -0.13046074 0.084220544 0.057732977 0.018716652 -0.060854971 0.066546194 0.17045322 -0.0055696778 0.076145612 0.35401273 -0.0011713096 0.35654461 0.11434218 0.016466672 0.092736438 -0.14767742 -0.047883742 0.20724358 -0.14284742 0.12796381 -0.070555188 -0.0078967111 0.13232358 -0.14656784 0.012470391 -0.17399886 -0.39109516
53 -0.10627811 -0.3507022 0.039599534 -0.16213168 0.056774627 0.0049469722 0.051571298 0.016325893 0.086792439 0.16765924 -0.062980525 0.14702591 0.2128872 -0.021765407 0.18624921 0.0300969 -0.057214361 0.067435049 -0.11827786 0.026127111 0.28840575 -0.1133294 0.18111947 -0.028522355 0.1155399 0.054389294 -0.029830674 0.077267863 -0.17711674 -0.19630857
74 0.00026833126 -0.43762207 0.089112639 -0.21190271 0.046339162 0.070447333 -0.056224547 0.033652127 0.12356576 0.1818698 -0.076072343 0.015603635 0.24043623 0.060077604 0.28607041 0.21971099 0.10607057 0.13796142 -0.20308892 -0.18371618 0.27817157 -0.121907 0.015846252 -0.03618481 0.015635226 0.08355353 0.063628055 0.13994676 -0.20570809 -0.19014253
50 -0.18381219 -0.32102841 -0.040051103 -0.07163246 -0.019046467 -0.15140533 0.09400329 0.068039216 0.040528536 0.12927788 0.0096728671 0.12386523 0.12143914 -0.043889042 0.17780352 -0.049324028 -0.061851043 0.028732741 -0.12939373 -0.07175976 0.3699562 -0.16327657 0.22748868 0.047121745 0.036215682 0.050092455 0.041325312 0.10080032 -0.18245381 -0.18943244
76 -0.081562266 -0.37579659 0.10811765 -0.1894583 0.068938971 0.067125998 0.042343188 -0.023270253 0.13088682 0.14481419 -0.059340306 0.062884435 0.38395941 0.0095054852 0.29612091 0.15115635 -0.020710364 0.16090028 -0.10762583 0.0033025211 0.14138642 -0.13006434 0.11922134 -0.12964028 0.14755219 0.087634951 -0.071116544 0.11403271 -0.16004285 -0.34990788
55 -0.036343694 -0.33955097 0.078702949 -0.15658434 0.029211784 0.028755123 0.033073939 0.0063284771 0.13095975 0.15802023 -0.048876978 0.086769313 0.21394794 0.013314032 0.1814851 0.075726159 -0.0090931375 0.072377101 -0.11969246 -0.030316353 0.22805682 -0.092974067 0.099393912 -0.034357004 0.096786745 0.06566231 -0.021501688 0.063772589 -0.15194713 -0.15022798
54 -0.12312498 -0.28827474 0.067975931 -0.11008583 0.02258209 -0.0076937941 0.069183618 -0.020852946 0.095237561 0.12197527 -0.039005026 0.12268953 0.22763036 -0.013642704 0.16442169 -0.0043542413 -0.09110862 0.02724248 -0.065494619 0.046125174 0.19687501 -0.096449606 0.20158219 -0.0011930163 0.12137182 0.058117464 -0.088154756 0.043949842 -0.14291744 -0.2035419
56 -0.13917911 -0.33553514 0.11359739 -0.16316283 0.051352203 0.07033398 0.076245569 -0.055756491 0.10324988 0.15059127 -0.032798614 0.17027956 0.32449836 -0.022668002 0.22691932 -0.0049552834 -0.12897965 0.062954828 -0.083676443 0.07700675 0.17326659 -0.12381336 0.22411193 -0.07349509 0.15757054 0.11352636 -0.16604878 0.027798759 -0.15312573 -0.30940616
75 -0.016248545 -0.35665539 0.07599695 -0.18624114 0.031239057 0.055337634 0.010615245 0.0069226874 0.10853726 0.14106208 -0.041199476 0.024943054 0.25331357 0.020526189 0.21539946 0.13944145 0.016701354 0.11127453 -0.13303332 -0.053801931 0.22258505 -0.11188539 0.071353763 -0.068334177 0.08237505 0.04598302 0.011838861 0.12832265 -0.16296372 -0.22015157
51 -0.060924593 -0.28920791 0.01796373 -0.11391497 0.010789475 -0.023494812 0.016195033 0.02370229 0.072719537 0.12734422 -0.024287999 0.050793365 0.15459788 -0.003141715 0.16830471 0.062524095 -0.0096326862 0.078836098 -0.13976315 -0.098290794 0.24319129 -0.12062851 0.11355223 -0.027704345 0.050839063 0.045777518 0.053979028 0.091217048 -0.13133655 -0.14292972
52 -0.04928318 -0.3153255 0.058802757 -0.1624251 0.0046650143 0.0048896121 0.029716134 0.023867408 0.10621197 0.12105329 -0.058306608 0.067771576 0.20108491 0.013143505 0.1582738 0.060271569 -0.0016073626 0.073953114 -0.13769847 -0.057214558 0.24467881 -0.11205751 0.083641335 -0.039630912 0.056312952 0.066939659 0.029414246 0.10456765 -0.1360444 -0.15204923
77 -0.069128029 -0.2709935 0.082889967 -0.10021201 0.031072695 0.018107031 0.021379936 -0.0010318228 0.069570743 0.13421148 -0.018782448 0.092343055 0.20080541 0.0050611813 0.22458751 0.041156814 -0.015105158 0.052805338 -0.09228503 0.0047886157 0.18031365 -0.086958386 0.12596649 -0.02057974 0.056600302 0.082875952 -0.078525454 0.03969441 -0.13820477 -0.20974796
78 -0.13801636 -0.27803379 0.074803308 -0.10416861 0.043800343 -0.01522461 0.079118744 -0.03198342 0.069280297 0.13904241 -0.023330478 0.12050775 0.23831505 -0.038187422 0.24067123 -0.0152857 -0.075745001 0.028861979 -0.1046692 0.01546778 0.2101395 -0.11843751 0.20846006 -0.011493206 0.079411335 0.09095411 -0.11009224 0.030538015 -0.13919477 -0.27090219
