100 128
71 0.046738066 -0.32884061 0.14476314 -0.43878171 0.31734785 0.72631377 -0.092944555 -0.11699712 0.23287188 0.47040868 0.012174872 0.037465502 0.1740189 0.10092289 -0.059798051 0.18466316 -0.31864971 -0.055861767 -0.29927051 -0.39736813 0.25410971 -0.14823838 -0.044363316 -0.52217335 0.167825 -0.10793511 -0.0084269317 0.40800801 0.065822788 0.16496958 -0.050786033 -0.37012333 -0.2690762 -0.085941494 -0.0056080995 0.10799958 0.11384391 -0.0064356118 -0.12078962 0.32702944 0.33446375 -0.009745772 -0.14288752 -0.14383884 -0.23798652 0.22866768 -0.38766575 -0.08255963 0.29988143 0.054470561 -0.065653935 0.036429368 -0.12671231 -0.15221015 -0.26296473 0.13966672 -0.0833463 0.52390683 -0.12308391 0.12608755 0.38603798 -0.26295575 -0.49054107 0.45638993 -0.11640614 0.38136926 -0.058119886 -0.03576519 -0.14904256 -0.44356734 -0.080029391 0.038313471 0.13067019 -0.58306849 0.029458009 0.033066541 0.30652153 -0.25448194 0.14623323 0.0069502271 0.67868084 0.082689196 -0.28914285 0.082366228 0.094879135 -0.013175331 0.28329119 -0.20074321 0.62812948 -0.22108588 0.39019307 -0.23000015 -0.34066653 0.11550041 0.043071873 0.37178609 0.28979141 -0.74172103 -0.15682723 0.050222788 -0.49832919 0.23644409 -0.33225629 0.019871024 0.16119434 0.31792715 -0.20619999 0.13920654 -0.30297032 -0.42316985 -0.06442856 -0.23317195 0.2695407 -0.18787964 0.072922073 -0.24397187 0.19569603 0.33653826 0.11229993 0.096009947 -0.24420793 0.21916161 -0.031593025 0.26842138 -0.39810905 0.46876609 -0.3013337 -0.21446326
72 0.055126891 -0.29274476 0.16435392 -0.42113677 0.30080909 0.74594957 -0.10118117 -0.13653278 0.2307248 0.42263824 0.010998419 0.040265232 0.23222195 0.12155751 -0.057568897 0.18829355 -0.32845572 -0.029961212 -0.25089458 -0.33493567 0.16498385 -0.15403047 -0.028842675 -0.51508135 0.17746477 -0.062341772 -0.046809323 0.34795332 0.074572273 0.096222624 -0.048291992 -0.39742184 -0.21759684 -0.14380272 -0.015043385 0.10016615 0.083645783 -0.034680296 -0.14767092 0.37013078 0.36977035 0.0037714252 -0.12701528 -0.18108916 -0.21010244 0.23779237 -0.36876312 -0.079661958 0.2675932 0.05021847 -0.090714328 0.023511948 -0.12269671 -0.14155686 -0.27477813 0.18493409 -0.069384068 0.50590134 -0.095372841 0.1696215 0.29830101 -0.26061207 -0.42976293 0.4031989 -0.098575465 0.35699046 -0.013761858 -0.0053869514 -0.098079324 -0.3836115 -0.073360212 -0.020539042 0.12445959 -0.58716363 0.0019249173 0.0015826895 0.28945804 -0.2382199 0.18077649 -0.0049710413 0.66014034 0.11618516 -0.30867141 0.12208833 0.1082654 -0.032830402 0.26310515 -0.17037445 0.62842208 -0.18787737 0.37299165 -0.22523952 -0.40771833 0.20148993 0.071537025 0.29379934 0.27593157 -0.71531349 -0.17699154 0.022709524 -0.40836319 0.23631595 -0.30913466 0.011529556 0.12341458 0.33080524 -0.26291665 0.16250916 -0.35081586 -0.35802627 -0.077914886 -0.15482771 0.27788073 -0.19065046 0.072068892 -0.25401184 0.24079968 0.24678366 0.071188614 0.090933137 -0.21292087 0.25759143 -0.030456068 0.30717674 -0.33337325 0.46686852 -0.26934984 -0.22880082
81 0.0045507615 -0.30221203 0.20378625 -0.40976763 0.33412892 0.7366088 -0.084134437 -0.17040251 0.1673222 0.50803697 0.071522079 0.015961312 0.093641572 0.12884158 0.048352618 0.21727756 -0.21316718 -0.11604651 -0.36156964 -0.51491618 0.35822633 -0.15488388 -0.10487805 -0.47300664 0.0625415 -0.11122286 -0.016973101 0.36212128 0.022627404 0.14214127 -0.024692021 -0.31084326 -0.27861068 -0.028702974 0.022139987 0.13285422 0.1435267 0.032801785 -0.11889518 0.24324994 0.28624699 -0.025398074 -0.21261318 -0.10120256 -0.18658036 0.14203396 -0.35357952 -0.11470991 0.25008953 0.016223004 -0.059435733 0.056472 -0.17835715 -0.067841254 -0.2528784 0.097519837 -0.0059011951 0.47858056 -0.078672796 0.1955577 0.36576897 -0.17560932 -0.44620749 0.42689192 -0.17414133 0.39560169 -0.12725776 0.029955262 -0.21038988 -0.53078389 0.0027332834 0.0021342256 0.10259273 -0.53540802 0.070691019 0.033413563 0.26318246 -0.17579062 0.13516071 -0.036749948 0.64227378 0.078007318 -0.23103449 0.099261485 0.13274258 -0.002144787 0.19884245 -0.20483579 0.6156916 -0.26455092 0.32942522 -0.21243393 -0.30666086 0.022052392 0.061821032 0.39942959 0.29078439 -0.68322384 -0.19198528 0.087357096 -0.44417942 0.13465357 -0.30629942 0.01192448 0.21589302 0.31739649 -0.16584437 0.097606413 -0.30171472 -0.46486002 -0.049586561 -0.26008126 0.2654596 -0.17139244 0.089078933 -0.28908253 0.21888413 0.34816363 0.17411561 0.10562921 -0.16453406 0.22902939 -0.042894538 0.24707749 -0.40225586 0.49457186 -0.2159297 -0.20587647
82 0.019243363 -0.26998773 0.27225876 -0.39969409 0.31781906 0.75676751 -0.12179428 -0.22083898 0.20237575 0.5186823 0.084266856 0.056637831 0.13305947 0.14198862 0.11978585 0.24502483 -0.19812506 -0.08958444 -0.37137988 -0.49091232 0.30892617 -0.14316319 -0.083788797 -0.49037063 0.036842152 -0.09700983 -0.10261117 0.2985732 0.0098088076 0.050187666 -0.001281055 -0.34262761 -0.22702508 -0.1112483 0.0050242255 0.11474002 0.10968328 0.021551112 -0.15566604 0.25614902 0.32854736 -0.038123332 -0.23896344 -0.11888028 -0.12537526 0.14372475 -0.34447938 -0.13704765 0.20581903 0.0016629796 -0.095338531 0.085622728 -0.23797816 0.028677091 -0.28842273 0.1158808 0.069719903 0.47887054 -0.013672359 0.28740987 0.27213517 -0.19611803 -0.36404368 0.33544096 -0.16243972 0.43291059 -0.083583489 0.085500084 -0.15754849 -0.49266982 0.024273941 -0.032120239 0.055567075 -0.55891889 0.090114698 0.014832923 0.25817126 -0.14166419 0.15786129 -0.083796941 0.61724871 0.1358515 -0.19829434 0.15192597 0.14950633 -0.028677939 0.20410728 -0.20538996 0.62940526 -0.26714736 0.28517962 -0.24132134 -0.35145289 0.10124055 0.093300648 0.3894335 0.29323032 -0.64082265 -0.17263177 0.017016863 -0.33352464 0.085683487 -0.31755859 -0.0025680584 0.18828139 0.31846035 -0.26103514 0.12661502 -0.33916998 -0.40681252 -0.094943151 -0.19526769 0.26320469 -0.17633741 0.13980921 -0.3155227 0.29524654 0.24605912 0.17016545 0.09334401 -0.11810146 0.32518914 -0.024299512 0.24601293 -0.37579325 0.54015434 -0.11100586 -0.23701268
83 -0.021306276 -0.21258427 0.33451518 -0.32929257 0.29324159 0.67850274 -0.15673874 -0.25113186 0.20194514 0.51623762 0.1426685 0.074736394 0.081717804 0.1044873 0.19293787 0.27802667 -0.13266946 -0.045071226 -0.36372319 -0.46270734 0.27159575 -0.075808436 -0.048685219 -0.45853654 0.027883638 -0.11174282 -0.17794836 0.24479517 -0.03176346 -0.016956234 0.013760411 -0.30791053 -0.18450184 -0.13561858 0.0050018183 0.078630552 0.040591486 0.033415966 -0.21921277 0.20168518 0.32351628 -0.028697889 -0.2502782 -0.10579139 -0.054664094 0.08098112 -0.299312 -0.13510144 0.17411916 0.0064310725 -0.095324777 0.1374511 -0.32472807 0.1501997 -0.32280514 0.083549947 0.17525783 0.46440256 0.055136904 0.34272972 0.16252027 -0.18561521 -0.28370163 0.19096072 -0.12630971 0.39181539 -0.035013869 0.13029699 -0.11316461 -0.40166739 0.060025435 -0.034922 -0.046168156 -0.55228889 0.1310219 -0.016295154 0.25515023 -0.12172414 0.13885333 -0.10588744 0.49172756 0.17046487 -0.11744414 0.18186514 0.16863047 -0.06253846 0.21653293 -0.2178434 0.56226635 -0.26206335 0.17613618 -0.26746178 -0.31151378 0.10685629 0.08946541 0.39389274 0.21840554 -0.4978354 -0.098629482 -0.046927147 -0.21722318 0.01266124 -0.34884462 -0.035465039 0.15590499 0.28722844 -0.30713761 0.16884011 -0.32252926 -0.31727779 -0.12767416 -0.15792863 0.22321685 -0.16926654 0.17826091 -0.31177253 0.35741183 0.13558955 0.17723702 0.068891823 -0.065818995 0.38138422 0.0024009373 0.16283597 -0.37556267 0.59230232 0.0082536656 -0.24441721
47 -0.14991009 -0.26972893 0.11228001 -0.11575606 0.10348384 0.19232659 0.023991028 -0.13902801 0.25045323 0.094561093 -0.073415093 0.29415551 0.36700812 -0.048429959 -0.11932924 -0.38066402 -0.42078128 -0.10554463 0.16029042 0.43400747 -0.075482078 0.00036415074 0.5019604 -0.055495203 0.30499405 0.11928257 -0.30386722 -0.043728344 -0.00070079288 -0.044446081 -0.070440918 -0.13685848 -0.066941775 -0.30099541 0.017731449 -0.18127915 0.015597941 -0.08599937 -0.29493365 0.28233013 -0.012705134 0.13370684 0.33348811 0.058938194 -0.22820851 0.56910366 0.022168759 -0.057039227 -0.062441707 0.073179901 -0.12837799 0.035432097 0.0020081808 -0.13095094 -0.35650876 0.11202269 0.038419109 0.27301359 -0.23699331 -0.037141722 -0.15443283 -0.24868779 -0.033486638 0.082540199 -0.0010578926 -0.21095556 0.15827711 0.066108257 0.3028293 0.10722113 -0.14713076 -0.21839398 -0.087401748 -0.49338561 0.10480661 -0.27514634 0.17111528 -0.020555889 0.12448465 -0.0050141867 0.063061908 -0.05038115 -0.22092678 0.043579198 -0.097438291 -0.042759907 0.38637531 0.058148906 0.010827115 0.15924093 0.017711315 -0.20815256 -0.27712199 0.51940382 -0.26337585 -0.025300469 -0.20032401 -0.14508669 0.02126253 0.0087636653 -0.058312178 0.2496112 -0.34097865 -0.26435265 -0.18517944 0.26708639 0.036668893 0.47806558 -0.39251679 0.14263929 -0.16568488 0.2486058 0.088544235 -0.15198754 -0.37219337 -0.063220128 0.16902012 -0.23145182 -0.39583224 0.12484595 0.0056839911 -0.12124869 -0.0040324312 -0.018445866 -0.092751868 0.23619488 -0.090868406 -0.081608072
48 -0.096392371 -0.26605332 0.17931765 -0.11596231 0.081778064 0.30323589 -0.054529388 -0.22078319 0.32256517 0.13416129 -0.059577849 0.38516945 0.38105625 -0.023285933 -0.047945082 -0.37440762 -0.44488174 -0.14976971 0.13235986 0.4418276 -0.090389788 -0.053620309 0.48043519 -0.14920838 0.2166401 0.24397182 -0.41071007 -0.13127147 0.018657638 -0.12438145 -0.064068779 -0.12023477 0.0054857871 -0.35879532 0.027720964 -0.21997857 0.046678457 -0.094178386 -0.28755334 0.32690328 0.0060605477 0.09503603 0.18340732 0.061847817 -0.15779561 0.64407432 -0.033503797 -0.15721835 -0.1055749 0.026957504 -0.24950774 0.0076018116 -0.0418888 -0.04563335 -0.35376462 0.22820513 0.056960169 0.27347878 -0.14986688 0.039123077 -0.22028808 -0.2384779 0.032057952 0.063146025 0.041261632 -0.18846042 0.2082084 0.11628476 0.30636355 0.053124923 -0.13571021 -0.24511166 -0.13650179 -0.52587485 0.13172443 -0.21647732 0.1749498 0.066909201 0.13203456 -0.07298895 0.07130409 0.032205645 -0.18009497 0.07586389 -0.12695175 -0.050197132 0.39714783 0.07507208 -0.0031740782 0.14931868 0.023313357 -0.25020498 -0.29749814 0.56998956 -0.2154723 -0.052685305 -0.18656974 -0.13025753 0.0015387195 -0.087543108 0.044611234 0.20892709 -0.3726196 -0.30072132 -0.15410852 0.27646476 -0.10271931 0.44385597 -0.49457461 0.057497479 -0.20315078 0.30992064 0.10175994 -0.21126784 -0.31305304 -0.12506431 0.21513626 -0.31415588 -0.41141352 0.10421149 0.0078090518 -0.07241419 -0.029417293 0.0020664341 -0.069015145 0.21909715 0.004058056 -0.18429586
17 -0.04226556 -0.37502861 0.016159061 -0.12639871 0.045272317 0.11777111 0.0597005 -0.10282277 0.37984815 0.34498516 -0.076700896 0.40111592 0.044540867 -0.083573908 0.013616393 -0.43856043 -0.27834651 -0.42826682 -0.046252154 0.30163831 0.27305874 0.025824672 0.46744165 -0.032445405 0.25837067 0.23323773 -0.22843823 -0.012259636 -0.014674366 0.25724521 0.026568715 0.13549408 0.0030688737 -0.2783657 0.10051315 -0.40740666 0.21897665 0.042340156 -0.15294114 0.14146912 -0.2992053 0.036635846 -0.0053597633 0.27278066 -0.16475755 0.58808136 -0.080849014 -0.14637101 -0.081308387 0.08689563 -0.23422068 0.011967131 -0.0039567482 0.10579068 -0.15448219 0.06733986 -0.1336838 0.091536321 -0.047146112 -0.1613057 -0.016507355 -0.36025587 -0.004789317 0.16424908 0.085919954 -0.23020504 0.18467607 0.10810973 0.064206086 -0.200717 -0.25700808 0.059994563 -0.21591 -0.37291703 0.31515849 -0.081642076 0.15476608 0.23242423 -0.15098007 -0.1652617 -0.17019875 -0.040717669 0.095298313 -0.081709787 -0.44413009 0.06765759 0.55515987 0.064286955 -0.18347074 0.12232649 -0.011007577 -0.34146079 0.26527405 0.11765672 -0.39797273 0.15326242 -0.10891975 0.040129907 0.080721088 -0.087866448 -0.19587535 0.2908203 -0.53450906 -0.27165806 0.03258178 0.070395812 0.069002561 0.12934788 -0.17146426 -0.22467843 -0.087228298 0.17259964 0.046022829 -0.2561003 -0.287696 -0.029880801 -0.0078834454 -0.066233635 -0.1713268 0.079399645 -0.041235555 -0.37361938 0.062202156 -0.29183209 -0.35038474 -0.0049741771 -0.099637873 -0.032180902
58 -0.054182649 -0.26939982 0.18299218 -0.17337652 0.083995797 0.36600736 -0.056698192 -0.21310286 0.33780757 0.12516673 -0.072790593 0.34315628 0.44480237 0.0039345538 -0.057879142 -0.32268202 -0.4575302 -0.11598499 0.15608196 0.40109667 -0.15035816 -0.02610982 0.45066231 -0.16787273 0.25889632 0.21589051 -0.38666001 -0.11905504 0.053489733 -0.11048811 -0.050403081 -0.19804452 0.021387637 -0.42119828 0.021740381 -0.22321227 0.020404784 -0.10136762 -0.30049548 0.40304628 0.076448299 0.060328249 0.20103517 0.022770198 -0.15754257 0.63846123 -0.061310206 -0.12752871 -0.072518133 0.059275933 -0.24371941 -0.010742613 -0.033509765 -0.042232547 -0.38489744 0.26169014 0.024901044 0.28185847 -0.11324347 0.098955229 -0.19898228 -0.2940267 0.043726288 0.048116881 0.0421189 -0.13626955 0.28133962 0.11587802 0.31377769 0.057730321 -0.14088053 -0.25139284 -0.11938693 -0.5672549 0.10012028 -0.24078865 0.19987011 0.0044718026 0.14114633 -0.128536 0.089112021 0.085438229 -0.20206313 0.14548293 -0.12777624 -0.079695381 0.40717617 0.063747406 0.086119644 0.14129956 0.071205452 -0.26343948 -0.34379861 0.63139939 -0.21237898 -0.074453272 -0.15516452 -0.20935726 -0.00016125679 -0.10729092 0.038404349 0.2659733 -0.35699636 -0.24255696 -0.21980366 0.26904428 -0.18707149 0.47445038 -0.47554833 0.052914362 -0.21297194 0.34139276 0.14147022 -0.20504601 -0.28356323 -0.10391134 0.2754316 -0.30366626 -0.42274308 0.096089877 -0.0097854761 0.0079267779 0.0070410282 0.037066959 -0.10314866 0.24452965 -0.029639423 -0.1425616
18 0.06439022 -0.3639352 0.087337971 -0.17111138 0.046062194 0.30256391 -0.042141613 -0.17301406 0.48709241 0.41268039 -0.1166103 0.4575277 0.15188648 -0.020176196 0.042286318 -0.38369203 -0.33966991 -0.41416469 -0.039331406 0.3584511 0.15830356 -0.0042508785 0.45239985 -0.16103411 0.26058325 0.35553095 -0.32055995 -0.097844124 0.028804069 0.18800651 0.050164755 0.059153393 0.093393423 -0.44731429 0.11888327 -0.43698323 0.20183674 -0.017966129 -0.18051794 0.29752898 -0.19539934 0.0081672268 -0.136526 0.19245212 -0.098272346 0.66521478 -0.18661441 -0.18712305 -0.10872111 0.071629286 -0.30439147 -0.030222064 -0.035113968 0.19468479 -0.16849133 0.25564191 -0.12184821 0.10714998 0.050133307 -0.0577127 -0.13054404 -0.42592385 0.055927504 0.11487056 0.12751234 -0.18846488 0.32609078 0.18776427 0.093790993 -0.19504379 -0.26342064 0.020104868 -0.2745806 -0.46156067 0.28631344 -0.043645967 0.15325813 0.28965229 -0.10422304 -0.26321784 -0.10820153 0.072370946 0.10833476 -0.015486047 -0.45283541 0.012004927 0.61584145 0.11128411 -0.14477466 0.12953286 0.018261299 -0.43552616 0.16148719 0.27632281 -0.3310692 0.095832333 -0.067214161 0.020545483 0.00019304876 -0.2080837 -0.11587618 0.34121594 -0.59736693 -0.29206684 0.019893823 0.11109069 -0.19658741 0.14842214 -0.29705039 -0.26894754 -0.11606367 0.29991463 0.12105208 -0.34731609 -0.21881491 -0.11503246 0.10325394 -0.23154831 -0.20998688 0.078833736 -0.036369603 -0.29294366 0.055182409 -0.19857992 -0.31675905 0.0071200375 -0.092418641 -0.15939775
16 -0.16459207 -0.35011965 0.003352782 -0.094321132 0.10923693 0.012016196 0.16584314 -0.089330137 0.25612536 0.24493617 -0.049395431 0.32035542 0.055476315 -0.081419729 0.021049676 -0.47704148 -0.25225767 -0.38629341 -0.03865999 0.26095507 0.31323871 0.08257509 0.48547462 0.10431442 0.30395293 0.042510722 -0.212428 0.0093296356 -0.084820442 0.23722307 -0.0068305666 0.10107174 -0.13245331 -0.19567774 0.090848342 -0.31629384 0.17731126 0.054028027 -0.2282141 0.056893677 -0.30867013 0.10300156 0.22831497 0.26087359 -0.23641747 0.52367312 0.069570906 -0.075363681 -0.093120128 0.10580913 -0.080302082 0.098245591 0.0020847518 0.032640114 -0.23844469 -0.10885369 -0.025216104 0.10157484 -0.15863062 -0.19959825 0.028904362 -0.28560871 -0.030786235 0.14656878 -0.019028764 -0.23349011 0.061393328 0.081085093 0.14803521 -0.138319 -0.18828405 -0.014860137 -0.15112413 -0.37319708 0.3176401 -0.23509692 0.14417386 0.12589857 -0.11175909 -0.071490951 -0.13799796 -0.12882355 -0.0063107517 -0.080886342 -0.30522525 0.047427274 0.4875527 0.045897469 -0.15859583 0.16024438 -0.052419025 -0.23716706 0.1518271 0.13078371 -0.45770881 0.19768162 -0.16951646 -0.009015725 0.13502496 0.077916518 -0.23663719 0.23812196 -0.44589049 -0.2469207 -0.052989099 0.099785708 0.26845917 0.26388434 -0.13245329 -0.064388007 -0.087565489 0.10743497 -0.0065052793 -0.14933744 -0.3949827 0.033954162 0.0094084889 -0.00361235 -0.19539246 0.12163954 0.030641623 -0.35334697 0.083884537 -0.3001647 -0.32171288 0.13768274 -0.092298836 0.091637559
11 -0.44922525 -0.46707785 0.069189526 -0.18595536 0.17462799 0.0092463028 0.081817195 -0.072736137 0.066974819 0.16570707 0.24135697 0.36351961 -0.094596498 -0.29677233 0.088547304 -0.51038277 -0.24218483 -0.28238934 -0.13451718 -0.19915062 0.59652358 -0.038469937 0.34095791 0.054523718 -0.11147316 -0.061603695 -0.087001629 0.33803898 -0.00069994514 0.038133319 -0.17448853 0.15132298 -0.34494251 0.39780638 -0.016127259 -0.13167082 0.24907327 0.21976684 -0.010924091 -0.18859686 -0.26672322 0.046039693 0.29080951 0.48610267 -0.33979645 0.43632016 0.066685334 -0.30206653 0.069808953 -0.019783938 -0.31423503 0.098967269 -0.076898851 -0.15140937 -0.47321561 -0.35923612 0.0013869314 0.38669938 -0.43247962 -0.036914743 0.39290133 -0.095756166 -0.33868542 0.43352357 -0.12327147 -0.059423268 -0.31473678 -0.14330348 -0.02290488 -0.3858318 -0.056616221 -0.020616969 0.15643434 -0.35812637 0.39451677 -0.10018759 0.42355844 -0.064596184 -0.054567762 0.092149556 -0.072998367 -0.24912776 -0.18674608 -0.15264709 -0.27903643 0.26920661 0.19101846 -0.27033544 0.10313394 -0.09984611 0.14854924 0.04004341 0.1396057 -0.26165053 -0.43531623 0.30782458 -0.20666395 -0.3248142 0.24971028 0.23756525 -0.28908077 -0.046813935 -0.23885988 -0.21218495 0.060382593 0.13686949 0.70137632 0.23654124 -0.15464777 -0.30690283 -0.15987964 -0.26676664 -0.12330884 0.015802417 -0.32862234 0.023292148 -0.14381236 0.51141357 -0.18166816 0.032014888 -0.17267741 -0.23995645 -0.087417044 -0.35834467 -0.35870403 0.17717011 0.11440602 0.16474983
13 -0.31621018 -0.41061804 0.055401482 -0.16644864 0.12283981 -0.047359619 0.11400149 -0.077769071 0.11095552 0.12344731 0.095959112 0.35330239 -0.015903331 -0.24303485 0.052765969 -0.55540842 -0.25073218 -0.33240587 0.013750236 0.015929157 0.44383663 0.1604999 0.36002859 0.20101902 0.048911065 -0.04983411 -0.068385758 0.1637641 0.030581256 0.14906059 -0.10623775 0.083966486 -0.26687342 0.11810192 0.045947205 -0.29223508 0.22383492 0.14397465 -0.095299296 -0.041621782 -0.27132362 0.021185162 0.40293664 0.46881646 -0.27767956 0.50594258 0.088266402 -0.19310047 -0.071553111 0.06803894 -0.17874742 0.08530245 -0.0022246465 0.0024657627 -0.48798949 -0.27031833 -0.038010027 0.25922841 -0.30319348 -0.083555721 0.19145763 -0.22676039 -0.12671591 0.22940958 -0.13321474 -0.15074538 -0.037244748 -0.023861684 0.086399183 -0.29921624 -0.12266173 -0.038544066 0.016352642 -0.33615422 0.38556373 -0.18154198 0.32583991 -0.018339733 -0.094909713 -0.12005211 -0.23956086 -0.21469085 -0.078310981 -0.10825383 -0.41790247 0.12748763 0.36852762 -0.095804133 -0.010736763 0.059736386 0.085393734 -0.049889293 0.1322524 -0.085864544 -0.55667108 0.18336709 -0.27603236 -0.18381451 0.22643301 0.26451221 -0.27885923 0.1490957 -0.30877644 -0.2112291 -0.17265044 0.071449615 0.53829283 0.37596962 -0.1071815 -0.21751277 -0.10458785 -0.01922101 -0.032561705 -0.0086509511 -0.43014643 0.11151335 -0.052776214 0.30880818 -0.29175645 0.041195288 -0.049794827 -0.35066098 0.036210496 -0.42679501 -0.35715708 0.10537688 -0.0051492951 0.29439002
15 -0.17027064 -0.37756002 0.025795126 -0.14882715 0.12960134 0.012387215 0.1823076 -0.091832384 0.21702418 0.23598981 -0.04420542 0.29137176 0.031763412 -0.08323504 0.050678503 -0.48082095 -0.21138588 -0.41089407 -0.029702242 0.16222782 0.37300295 0.18809378 0.41638723 0.19502605 0.28754684 -0.035473954 -0.13781427 0.014728142 -0.065756373 0.28485826 0.0096550025 0.056392513 -0.16567405 -0.1960327 0.10891348 -0.34732693 0.19423442 0.067445688 -0.20964485 0.065431483 -0.30727959 0.053171664 0.2953831 0.31220558 -0.22640887 0.50644928 0.060334161 -0.070452213 -0.1121181 0.13517508 -0.029384376 0.11210325 0.0048387907 0.1021761 -0.31455022 -0.16672128 -0.043705627 0.096236624 -0.15429255 -0.15360002 0.060423125 -0.32443178 -0.0045571649 0.126807 -0.10338144 -0.17934385 0.10014777 0.09781114 0.13060082 -0.21445622 -0.18872105 -0.0013089202 -0.14180027 -0.3728264 0.35691845 -0.25801221 0.17437027 0.097596124 -0.14388859 -0.18316579 -0.19792749 -0.1347785 0.023869965 -0.075138599 -0.37590277 0.020672664 0.51880711 0.037079167 -0.10114684 0.16597742 -0.02091483 -0.22464122 0.16829297 0.083113126 -0.5310123 0.21793213 -0.17692509 -0.04035344 0.15289986 0.18388543 -0.29852808 0.2728309 -0.45028374 -0.19731496 -0.12656057 0.07891228 0.30523321 0.33191898 -0.075832218 -0.11464823 -0.064939566 0.10434169 0.023504706 -0.12947674 -0.42314121 0.076932877 0.04837773 0.078632779 -0.20492661 0.12424561 0.059419278 -0.37816191 0.13810962 -0.36090451 -0.40134516 0.15423116 -0.12560052 0.21185179
38 -0.067214713 -0.33279809 0.14836356 -0.12047638 0.056564931 0.27369976 -0.05274412 -0.20717941 0.40496394 0.22620846 -0.080022663 0.45717016 0.31506085 -0.051793355 -0.049019936 -0.44202623 -0.45137012 -0.25224751 0.10829967 0.48605329 -0.014683469 -0.049023271 0.54371566 -0.15057962 0.23913565 0.32069767 -0.40569511 -0.12444367 0.023899464 -0.022451675 -0.041117027 -0.039274719 0.038433045 -0.39764321 0.054760139 -0.32250282 0.10583439 -0.071505129 -0.26261008 0.30941969 -0.095085993 0.08727368 0.099985287 0.13330965 -0.16466668 0.71398014 -0.070281096 -0.1792701 -0.11288378 0.038157232 -0.30522582 -0.014332823 -0.034239329 0.0061578415 -0.30293101 0.23813148 -0.0052083586 0.23192413 -0.11933666 -0.021420252 -0.21968965 -0.30858472 0.035052754 0.081855282 0.09479247 -0.25193557 0.25492868 0.13479561 0.25417817 0.006549919 -0.20808634 -0.16229746 -0.20353273 -0.51661313 0.18136559 -0.16306545 0.17838757 0.16398637 0.051380903 -0.11313702 -0.023422636 0.014810776 -0.086016104 0.022282029 -0.27455154 -0.0090611242 0.50134343 0.093045548 -0.11099432 0.1573419 0.00039982231 -0.33066452 -0.12615746 0.49229437 -0.28447345 -0.021235041 -0.19029951 -0.042615809 0.010071123 -0.14473046 -0.00040687341 0.27242145 -0.47085914 -0.3477895 -0.092412964 0.22898473 -0.083040647 0.35785937 -0.44873813 -0.026600659 -0.18488829 0.33074373 0.094233818 -0.27016956 -0.33071718 -0.12267863 0.1372682 -0.3128427 -0.39500481 0.10268609 -0.012171332 -0.20321064 -0.022450298 -0.097180001 -0.14081882 0.12140905 -0.032998245 -0.18794227
34 -0.31396747 -0.30317608 0.038226925 -0.035444465 0.19235802 -0.027011221 0.1695268 -0.079339609 0.16233002 0.16831048 0.010114468 0.31199586 0.1152559 -0.13697833 -0.038104214 -0.48910815 -0.29596648 -0.21301876 0.017250665 0.3240498 0.26573116 0.0071699074 0.53312016 0.082925305 0.24758403 -0.027148554 -0.2683531 0.074639156 -0.1080766 0.14735252 -0.058781754 0.080919594 -0.26412663 -0.0021904039 0.035967283 -0.16154148 0.11610316 0.06604103 -0.26423958 0.020227455 -0.24872938 0.22279617 0.40241981 0.22354044 -0.32249027 0.47094256 0.15305729 -0.058892023 -0.07090041 0.052589621 -0.059573717 0.11972952 -0.0017278226 -0.11837962 -0.34714589 -0.20108284 0.10508494 0.21134809 -0.34298784 -0.21600527 0.017523609 -0.14715216 -0.13654679 0.18069763 -0.060986057 -0.2691597 -0.10467973 0.0016126907 0.26092291 -0.0029187743 -0.11369675 -0.11025617 -0.062696263 -0.41061702 0.24658637 -0.26975822 0.15645632 0.041673314 0.038768757 0.13514113 -0.0083049778 -0.2281803 -0.18277729 -0.094752416 -0.1395496 0.086711846 0.374304 -0.0077837845 -0.13631615 0.13325524 -0.059217561 -0.12353826 -0.062104229 0.17037797 -0.42414266 0.19661814 -0.2533707 -0.05876584 0.12466878 0.16497424 -0.23059432 0.14668709 -0.39078498 -0.27858606 -0.042210344 0.19059919 0.43990877 0.36644387 -0.23780538 0.079418845 -0.11704764 0.019762382 -0.048738964 -0.065101437 -0.47470275 -0.015499707 -0.033624265 0.0054482683 -0.27448285 0.17556623 0.051186264 -0.31069681 0.011859586 -0.17517228 -0.173141 0.23846576 -0.031982012 0.032690339
36 -0.17244183 -0.29005471 0.05757146 -0.08370959 0.12501407 0.045947134 0.1323922 -0.081623435 0.22976932 0.16558036 -0.091315299 0.26361346 0.23144993 -0.043527909 -0.088560723 -0.43195048 -0.32790717 -0.20143755 0.098258942 0.40831614 0.084192738 0.064852521 0.53665566 0.074318923 0.36253446 0.029526649 -0.24753393 -0.029067218 -0.073569156 0.12888378 -0.01306094 -0.052379176 -0.12953824 -0.26139626 0.04239602 -0.2169223 0.064599738 -0.040922813 -0.29843801 0.17128001 -0.16187407 0.15843724 0.37517479 0.12224912 -0.25592217 0.50822139 0.082052857 0.006452159 -0.084777176 0.10837783 -0.02001819 0.087647758 0.019710213 -0.07434652 -0.3027533 -0.024941225 0.041739933 0.17918155 -0.26019961 -0.14155068 -0.1096947 -0.26481652 -0.035945106 0.088658795 -0.052826911 -0.25152874 0.08816535 0.076581962 0.26351836 0.058075946 -0.17181441 -0.13460773 -0.11839089 -0.42099202 0.17049755 -0.29706982 0.1175313 0.029209185 0.046382703 0.011587541 -0.012228929 -0.14236985 -0.14086334 -0.038347393 -0.146267 -0.011877923 0.4393248 0.081594221 -0.084920853 0.19130853 -0.055494178 -0.22018339 -0.11754855 0.37405655 -0.34875879 0.077796921 -0.19435789 -0.034445915 0.051066894 0.10279476 -0.17834948 0.259058 -0.39188489 -0.24414225 -0.11862803 0.21366501 0.19434021 0.41647682 -0.23900162 0.15700635 -0.11351325 0.18380918 0.046200015 -0.13597907 -0.4449372 -0.031471461 0.092818916 -0.15491259 -0.31096894 0.16203034 0.063824587 -0.2620756 0.057778448 -0.11554666 -0.16197775 0.21912733 -0.14597991 0.0066934372
26 -0.17340244 -0.32967117 0.043769799 -0.11533675 0.099167094 0.033003476 0.1215018 -0.088113889 0.21184269 0.17511143 -0.053318638 0.28714541 0.14403515 -0.091546141 -0.047575489 -0.45708215 -0.28713101 -0.28674221 0.048693873 0.28265908 0.21209721 0.091584995 0.48838833 0.10527194 0.27989736 0.029604817 -0.18912935 0.010505416 -0.049377929 0.16083869 -0.027410215 0.010212095 -0.1282635 -0.19790238 0.059306003 -0.27657884 0.12692316 0.006698369 -0.22463681 0.10530742 -0.2239753 0.086620152 0.30842626 0.22461008 -0.24505226 0.5247913 0.05453413 -0.057052691 -0.077664167 0.10797507 -0.071317382 0.080506295 0.0092328908 -0.025800802 -0.30783874 -0.066087402 -0.012486244 0.17181918 -0.23519585 -0.12719126 -0.018007385 -0.28076518 -0.044408735 0.13232943 -0.053049646 -0.22567002 0.090835378 0.05595991 0.17079036 -0.075405777 -0.18701851 -0.074373104 -0.1152973 -0.38391048 0.2563414 -0.24954112 0.16050966 0.050049443 -0.042198867 -0.070923068 -0.11789107 -0.13827148 -0.069228791 -0.057316363 -0.26170573 0.030414488 0.44067398 0.040342949 -0.091332451 0.15827857 -0.021013891 -0.20982753 0.034281209 0.22834761 -0.41079417 0.11137696 -0.20024836 -0.050580975 0.10857569 0.1101812 -0.2076873 0.25058931 -0.39079586 -0.23862708 -0.11744081 0.15427007 0.25951979 0.36673257 -0.17016266 0.015746783 -0.1061295 0.14043288 0.035759114 -0.12405108 -0.41251862 0.010480663 0.054800645 -0.036225758 -0.27411428 0.1097223 0.018200245 -0.31265095 0.056303874 -0.24663335 -0.25525409 0.15686309 -0.12785503 0.081703253
14 -0.24725276 -0.39637575 0.056071628 -0.1567923 0.13105282 -0.01398036 0.13810952 -0.090220459 0.15840814 0.18823309 0.016958121 0.32115304 0.011471719 -0.15209399 0.044165932 -0.51204222 -0.23400098 -0.37094355 0.00052370329 0.098611563 0.40444255 0.18366297 0.40306905 0.2001472 0.18035612 -0.05006329 -0.10186856 0.088802062 -0.02833754 0.22112866 -0.044580143 0.050732095 -0.22965658 -0.050083268 0.080757521 -0.31910858 0.20382287 0.095348567 -0.17512295 0.022389207 -0.28470492 0.038753875 0.36609215 0.3880637 -0.26192391 0.516092 0.078925967 -0.12035312 -0.099290028 0.10560605 -0.091422908 0.10758127 -0.0043868921 0.052661881 -0.41628245 -0.21442217 -0.026585493 0.20472568 -0.24713771 -0.11545863 0.1068306 -0.28819704 -0.067364089 0.17433991 -0.14411941 -0.16358666 0.037764691 0.044890743 0.10951408 -0.26433778 -0.16253786 -0.027956935 -0.071951434 -0.36078927 0.37924525 -0.22915715 0.24959192 0.036491156 -0.10449839 -0.15873361 -0.20768574 -0.18757515 -0.030590035 -0.092658281 -0.3864477 0.075591303 0.45256642 -0.026848188 -0.04366903 0.10739221 0.023282798 -0.14798261 0.12918778 0.015725849 -0.54605573 0.21114165 -0.23703712 -0.11535875 0.18772221 0.23963031 -0.31051233 0.21435061 -0.38994852 -0.21405597 -0.15889058 0.099878915 0.42869446 0.38632408 -0.10738283 -0.15586644 -0.095708348 0.042125721 0.010206563 -0.071428373 -0.43480211 0.077167042 0.0088681076 0.18492834 -0.25969121 0.086498342 0.011071645 -0.36807883 0.079564191 -0.39874122 -0.3791433 0.14993034 -0.087379359 0.25037149
24 -0.31010756 -0.33376643 0.062723108 -0.082443506 0.18684112 -0.035560183 0.17200148 -0.097731926 0.1321969 0.16413879 0.034282114 0.29333931 0.07094527 -0.13387108 0.036131505 -0.4867101 -0.24404995 -0.27773991 -0.0016291235 0.17830013 0.35486484 0.10131946 0.44796363 0.17519158 0.19494581 -0.080089502 -0.20064783 0.062930018 -0.092564858 0.16699983 -0.056291524 0.056472726 -0.28203592 -0.0081133423 0.051674102 -0.2050716 0.15890878 0.080981888 -0.24444994 -0.014071781 -0.25908321 0.15040691 0.41454074 0.28954497 -0.2853066 0.45926178 0.15027863 -0.072884567 -0.098930381 0.065108888 -0.038418222 0.13931787 -0.018453455 -0.024593024 -0.39761791 -0.23752871 0.093203999 0.19816934 -0.29833782 -0.14411417 0.061994959 -0.19017185 -0.085994765 0.16218589 -0.14101925 -0.20139463 -0.072366737 0.040983185 0.20482467 -0.12044144 -0.097106136 -0.09769062 -0.055897437 -0.38720027 0.31138805 -0.28066105 0.18497169 0.02789795 -0.0096146585 0.0040555536 -0.077723742 -0.21626878 -0.1193874 -0.080398068 -0.22379827 0.072602272 0.38569936 -0.016408218 -0.071977705 0.12372135 -0.036738768 -0.10991233 -0.020956384 0.099707127 -0.48057023 0.22085677 -0.24278221 -0.099386543 0.15386331 0.23802786 -0.26281771 0.15308255 -0.36012125 -0.22511229 -0.10545258 0.1595152 0.45714706 0.40209639 -0.17419098 0.0017904765 -0.1001185 0.015505635 -0.030382233 -0.048591789 -0.47318909 0.028271586 0.0032525575 0.092694528 -0.26151019 0.14550282 0.077587143 -0.31032953 0.052553769 -0.27204588 -0.24758439 0.24739149 -0.037158448 0.16167969
37 -0.13800162 -0.31331271 0.093088619 -0.091457598 0.080879278 0.13542484 0.036051374 -0.13609561 0.3096607 0.18371347 -0.086451486 0.36681592 0.26681575 -0.069089413 -0.090176314 -0.45436853 -0.38903683 -0.23139895 0.11785703 0.44884574 0.039272688 0.017151188 0.5518989 -0.010018287 0.29455921 0.1735186 -0.29705968 -0.070671856 -0.016979508 0.062866218 -0.034877375 -0.028567793 -0.048058681 -0.31855252 0.059691604 -0.2823875 0.093741812 -0.058319408 -0.26591915 0.22426659 -0.15108703 0.12328 0.25694433 0.1455822 -0.22371528 0.61148298 0.012205705 -0.073062293 -0.1027681 0.071742252 -0.15380208 0.036223665 0.0079349512 -0.037696131 -0.30160317 0.097710311 0.010812532 0.19986109 -0.20748954 -0.095016584 -0.16432673 -0.2897284 -0.0068737459 0.089831233 0.018315781 -0.27052423 0.17545819 0.1000214 0.24322316 0.032388434 -0.1935913 -0.13739732 -0.16203937 -0.44193855 0.19171929 -0.22505732 0.14416814 0.092062853 0.033854313 -0.048611678 -0.04812054 -0.088402912 -0.10283941 -0.027906612 -0.22517531 -0.0017055775 0.46704274 0.088781945 -0.11810331 0.17845029 -0.036813851 -0.26759037 -0.097547829 0.41210631 -0.32998085 0.019537564 -0.20839538 -0.028121758 0.036181044 -0.0064631132 -0.095321372 0.26673436 -0.4260554 -0.30383354 -0.11422705 0.21440342 0.087650768 0.39628541 -0.32406503 0.07150881 -0.13255326 0.25385407 0.074602716 -0.19564123 -0.3923184 -0.065514237 0.10102648 -0.22832015 -0.36344871 0.11404348 0.026459537 -0.26681352 0.014893288 -0.14013954 -0.14495099 0.14209621 -0.11122915 -0.073867783
31 -0.47610295 -0.40935266 0.042807817 -0.088496432 0.26098779 0.040238462 0.16422634 -0.10688618 0.087146237 0.22384469 0.22879027 0.33403975 -0.034910314 -0.24018362 0.06111395 -0.47253147 -0.29057956 -0.25840965 -0.21771006 -0.040420305 0.56233966 -0.18574141 0.45056602 -0.046328224 0.046840958 -0.069217533 -0.2586951 0.32811639 -0.13333876 0.05346179 -0.17655934 0.19694923 -0.39798418 0.37081492 -0.012204822 -0.024752859 0.19569936 0.21679768 -0.15481673 -0.19642459 -0.26741603 0.21629904 0.26215261 0.32592988 -0.40944332 0.429079 0.13434173 -0.24874552 0.084917136 -0.042241525 -0.25033388 0.1530847 -0.098878853 -0.2728838 -0.34199354 -0.38362187 0.10756911 0.34758931 -0.44000569 -0.20062843 0.360053 0.011841854 -0.38863125 0.4398706 -0.056573424 -0.12968054 -0.45160189 -0.14411689 0.10920391 -0.21515159 -0.041790593 -0.054567322 0.10907717 -0.45334849 0.32863876 -0.21417978 0.3259719 -0.0096075097 0.012521616 0.33119667 0.13036688 -0.25621971 -0.29287693 -0.14551102 -0.025505656 0.2513364 0.19484463 -0.24887288 0.0093104299 -0.055474795 0.046559408 -0.010000141 0.028556067 -0.13722698 -0.37210947 0.40775707 -0.19028848 -0.27878973 0.21697035 0.16714229 -0.29027817 -0.098916672 -0.31761074 -0.28568271 0.19425692 0.23500392 0.69078279 0.20705415 -0.27720541 -0.14566687 -0.18211818 -0.32734478 -0.18564974 -0.033009056 -0.36406752 -0.043272417 -0.15427417 0.3587037 -0.10768172 0.15383208 -0.11586556 -0.19290707 -0.11128051 -0.19464031 -0.30283952 0.34868604 0.15251897 -0.019498693
28 -0.020600991 -0.34421235 0.097707428 -0.10377853 0.039518021 0.23607327 -0.031690408 -0.16975392 0.43917263 0.32069039 -0.10327334 0.46555328 0.2005327 -0.049084216 -0.032053113 -0.43230313 -0.39761412 -0.34573975 0.042501215 0.47971958 0.07864745 -0.047803029 0.53656131 -0.1431877 0.25579172 0.35837814 -0.37058815 -0.10330254 0.0090593863 0.10870871 0.0051890877 0.065615453 0.071672343 -0.39367121 0.089002751 -0.38551718 0.16475542 -0.038925298 -0.21755864 0.26607722 -0.19630218 0.074377708 -0.01899484 0.17417255 -0.14800276 0.68182808 -0.1160622 -0.16709629 -0.12096947 0.044799753 -0.30355296 -0.017856704 -0.01605409 0.066940486 -0.17838494 0.23018579 -0.075349204 0.14442199 -0.059009891 -0.10171498 -0.18660799 -0.34627455 0.037427727 0.11444801 0.12982118 -0.27276754 0.25377148 0.15629615 0.16456392 -0.077951141 -0.25023794 -0.04415017 -0.25592634 -0.46605524 0.22775126 -0.095271803 0.14153075 0.25391749 -0.042635731 -0.12849806 -0.071559541 0.00093063456 0.018253367 -0.034247566 -0.35715881 0.030658804 0.55862933 0.11309679 -0.18275478 0.15102051 -0.018964872 -0.38217437 0.052572895 0.35116196 -0.30071306 0.046672206 -0.14152631 0.039081737 0.0033497466 -0.18233772 -0.074374713 0.30010685 -0.55592984 -0.34918439 0.013028845 0.17866883 -0.085297003 0.23110703 -0.36243233 -0.12734564 -0.13522835 0.29702368 0.083626725 -0.31648219 -0.29251066 -0.12530281 0.066760831 -0.28476024 -0.29647347 0.096433818 -0.021324679 -0.29791087 0.003839653 -0.15332435 -0.21625432 0.034197494 -0.069025815 -0.19714977
12 -0.39843604 -0.42598659 0.085402973 -0.18540411 0.12541424 0.0046615149 0.051283609 -0.081170037 0.061150435 0.085596845 0.19281308 0.34927416 -0.0047830078 -0.27565974 0.033327121 -0.49937513 -0.27350563 -0.22569993 -0.0093211867 -0.10030842 0.4371438 0.036617093 0.33780515 0.085339405 -0.076156534 -0.036757238 -0.068473011 0.26195964 0.048680961 0.0001961466 -0.17218417 0.072289914 -0.29566503 0.29065424 -0.013871737 -0.16886276 0.19395439 0.15691561 -0.033999167 -0.093961373 -0.20501389 0.015055724 0.36420482 0.44891176 -0.30210704 0.46540499 0.064323492 -0.26843816 0.026186774 0.0060506267 -0.29046878 0.072180852 -0.044302817 -0.1366242 -0.51241416 -0.27192613 -0.015412008 0.37755722 -0.40079054 0.0024603312 0.2846747 -0.13418359 -0.25866485 0.33772117 -0.12319425 -0.084487945 -0.16483739 -0.11161575 0.031788412 -0.2933847 -0.062223434 -0.069341369 0.13600248 -0.3392604 0.33459544 -0.12673204 0.40681332 -0.091938622 -0.019658003 0.018608864 -0.12333468 -0.21685821 -0.18818073 -0.10690639 -0.29919925 0.20244831 0.20309788 -0.2075928 0.10226843 -0.052797414 0.14624585 0.040948477 0.056227636 -0.12345896 -0.42890519 0.18138161 -0.24306066 -0.30760825 0.23389482 0.22862281 -0.23770256 0.017016524 -0.20176335 -0.20362087 -0.075905815 0.12912905 0.58768463 0.33533621 -0.166126 -0.230738 -0.16323535 -0.14117138 -0.062904537 0.026857756 -0.34266353 0.060443956 -0.071330875 0.40069243 -0.28305346 0.0073801489 -0.15150501 -0.22525407 -0.067953095 -0.33117059 -0.29853657 0.14302185 0.064572357 0.19504406
27 -0.12003116 -0.35886469 0.033946518 -0.087173581 0.079395495 0.082112387 0.091740698 -0.11410808 0.33247104 0.27475137 -0.086626403 0.38384801 0.140691 -0.069869988 -0.032399286 -0.49326193 -0.32879472 -0.35979751 0.019773664 0.4160898 0.19795296 0.013881071 0.56475431 0.013693279 0.32011145 0.18223529 -0.30214748 -0.039427262 -0.064876258 0.18211237 -0.0034039649 0.084895253 -0.049386825 -0.29547739 0.085637651 -0.34595403 0.15717617 0.0023890955 -0.24777254 0.14478545 -0.28426561 0.12261023 0.16063581 0.21911204 -0.22410972 0.62598109 0.015881332 -0.1009831 -0.10725521 0.08344236 -0.16641353 0.055851739 -0.0017041278 0.019265128 -0.21641555 0.024429994 -0.037322402 0.12932873 -0.15688317 -0.18441035 -0.092927434 -0.30763194 -0.01328805 0.13186127 0.047325946 -0.29294088 0.12632722 0.11081025 0.1877764 -0.061768539 -0.24143595 -0.039727326 -0.20406927 -0.43374237 0.26928577 -0.20782495 0.13866609 0.18816014 -0.067521542 -0.056372866 -0.11276936 -0.10290832 -0.013942112 -0.076824985 -0.31856838 0.047604777 0.54165047 0.081501424 -0.20816745 0.17921872 -0.066716589 -0.32011107 0.096627228 0.26578552 -0.40382701 0.12620096 -0.17952336 0.038916234 0.078860253 -0.035543125 -0.17310619 0.27329025 -0.50886667 -0.32603464 -0.013162197 0.1665373 0.14930508 0.26942497 -0.25964037 -0.033016119 -0.115362 0.1958382 0.021721603 -0.23664483 -0.39358306 -0.053154398 0.022494396 -0.16059187 -0.26904401 0.13401787 0.015365199 -0.35789755 0.039590072 -0.2341686 -0.26278609 0.10886936 -0.095726855 -0.057083845
25 -0.23687078 -0.32613018 0.053674079 -0.086953655 0.14516923 -0.0094233472 0.16549161 -0.097938307 0.19020376 0.18109773 -0.043368828 0.28557402 0.12396723 -0.073933862 -0.012589312 -0.48894429 -0.26423216 -0.29826075 0.037123837 0.28937 0.26341265 0.11348222 0.50831538 0.16662499 0.29643759 -0.046031386 -0.21028793 -0.0049183513 -0.09719488 0.18608062 -0.019251492 0.015183547 -0.20709154 -0.17126738 0.067003004 -0.24803808 0.12660474 0.026263364 -0.2797226 0.067129835 -0.25286651 0.13484071 0.39317706 0.23007546 -0.26676619 0.50544107 0.12693678 -0.025139032 -0.11231766 0.10206725 -0.0090088621 0.13002038 0.0043043466 -0.011590422 -0.3591516 -0.14692439 0.071575418 0.16630004 -0.2712433 -0.1489201 -0.026468642 -0.24991228 -0.038484469 0.11431834 -0.1241538 -0.23732829 0.023488881 0.077050403 0.2136808 -0.074188285 -0.15057416 -0.10990328 -0.10530106 -0.39190876 0.28644463 -0.30808827 0.13920815 0.049759321 -0.015228105 -0.044405498 -0.091645807 -0.19961441 -0.09319023 -0.075681567 -0.22396544 0.024352718 0.44423416 0.038366087 -0.1079734 0.16813992 -0.066501439 -0.18248288 -0.011993783 0.21090236 -0.46287513 0.17104898 -0.2322661 -0.044986643 0.12178213 0.2026398 -0.25186884 0.2233728 -0.3989315 -0.23716356 -0.12663051 0.16577433 0.3549985 0.42317012 -0.16725492 0.061833616 -0.10091625 0.11051501 0.017260775 -0.096031539 -0.48355246 0.0088507328 0.056203209 -0.018085955 -0.28510129 0.14562052 0.086126983 -0.32055828 0.070442922 -0.25382921 -0.24572769 0.23142163 -0.11537083 0.12790512
35 -0.251454 -0.30118865 0.050381254 -0.056826752 0.18127806 0.013460261 0.17577156 -0.10147856 0.19998348 0.20242457 -0.046829306 0.29433841 0.16366675 -0.066998988 -0.032399986 -0.46960628 -0.29028293 -0.24242513 0.032092616 0.36275312 0.22602879 0.06030684 0.53512108 0.11678991 0.3394883 -0.029469522 -0.27184749 0.0044578617 -0.12358221 0.17814703 -0.020840382 0.016604902 -0.22503029 -0.16813201 0.065301739 -0.20379353 0.10446112 0.013625932 -0.3129552 0.088782117 -0.23710914 0.20104507 0.40235934 0.17074621 -0.29092774 0.49001771 0.1334658 -0.0081329802 -0.11210993 0.085796818 0.0073840134 0.12744752 3.4419005e-05 -0.058749273 -0.33130136 -0.14392392 0.10777658 0.16818014 -0.28738195 -0.19675997 -0.052073564 -0.2254924 -0.061383594 0.11463942 -0.094891213 -0.25840148 -0.014211288 0.074512072 0.27243561 0.003154391 -0.13692665 -0.12376075 -0.11231142 -0.43545717 0.24773139 -0.32046312 0.1184883 0.059504796 0.028175721 0.047509171 -0.0080046654 -0.20276774 -0.14553316 -0.069291875 -0.14580666 0.026407436 0.44986182 0.046558168 -0.12832044 0.18308532 -0.082028829 -0.1932392 -0.091913365 0.26573241 -0.43480015 0.17777161 -0.22658588 -0.039634395 0.09425135 0.17516702 -0.23745783 0.21088168 -0.43251076 -0.26245582 -0.08348418 0.20022108 0.33202234 0.41992724 -0.22479965 0.12249402 -0.10416591 0.097416595 0.00796011 -0.10829125 -0.48921576 -0.017974179 0.049856521 -0.077071592 -0.2840777 0.18982407 0.10607012 -0.30680957 0.060860995 -0.1707904 -0.19618411 0.27501333 -0.10547208 0.048960924
33 -0.38982129 -0.32519904 0.029295506 -0.030383984 0.22255757 -0.044454627 0.17084864 -0.072464511 0.12948503 0.17052662 0.097421207 0.32183197 0.051170781 -0.18667325 0.0070782406 -0.48567021 -0.28837064 -0.20925601 -0.054455418 0.21578424 0.37074745 -0.055747971 0.50574738 0.056209892 0.15921855 -0.047362927 -0.27533221 0.16420496 -0.11258968 0.11827815 -0.10375659 0.14038788 -0.32113329 0.16424382 0.0059381863 -0.11313471 0.13759325 0.12376817 -0.23209457 -0.070581444 -0.26721272 0.23431036 0.37742895 0.26571596 -0.3507883 0.44407293 0.16600953 -0.11688313 -0.03751773 0.0060954364 -0.12048867 0.13609193 -0.025348732 -0.18086043 -0.35519537 -0.28061128 0.11961985 0.24800868 -0.38102072 -0.21835804 0.13375637 -0.079928987 -0.21506342 0.26588443 -0.051958539 -0.23830701 -0.23618101 -0.053223863 0.22401929 -0.048476845 -0.060530238 -0.09369228 0.008503953 -0.39417937 0.26167631 -0.23862438 0.20272058 0.02173206 0.039862782 0.22780018 0.03055013 -0.25674793 -0.22853635 -0.11936003 -0.1016534 0.15549539 0.28556347 -0.089374237 -0.10852691 0.068553209 -0.025735103 -0.048902202 -0.037544258 0.038620349 -0.4057329 0.26139227 -0.25105554 -0.12159248 0.17014596 0.17461653 -0.24605046 0.038850255 -0.34948057 -0.27079684 0.04072091 0.18721679 0.56389862 0.30874604 -0.23594697 0.017333589 -0.13179323 -0.11040452 -0.11245324 -0.03238095 -0.44162121 -0.0082705794 -0.10165918 0.12209018 -0.22582145 0.15917411 0.011141232 -0.27903822 -0.032365806 -0.17708471 -0.1784924 0.24923959 0.044809364 0.02464308
32 -0.47527477 -0.38142145 0.040288463 -0.069426127 0.25978455 0.022115717 0.1540667 -0.095518708 0.10156305 0.20193616 0.18901201 0.34469149 0.013863217 -0.23597649 0.028659662 -0.471156 -0.31035623 -0.1996128 -0.14949773 0.071817324 0.47275448 -0.16345799 0.48119026 -0.043980345 0.057288527 -0.049796071 -0.29098186 0.29345942 -0.11471295 0.044530321 -0.16221118 0.16903214 -0.37586769 0.33535889 -0.031564571 -0.032329537 0.16815302 0.18430749 -0.1861034 -0.14914948 -0.24983281 0.2448252 0.31464958 0.29564133 -0.4041042 0.43268394 0.1506699 -0.20261724 0.053964112 -0.046509281 -0.22161774 0.13925977 -0.077490769 -0.26773036 -0.37249154 -0.34351954 0.12784888 0.3472307 -0.44817334 -0.19732776 0.26819792 0.0016503423 -0.35690469 0.39710012 -0.045949508 -0.18053012 -0.4006367 -0.12390894 0.16885522 -0.13419278 -0.037731159 -0.084097289 0.09458252 -0.45393062 0.28496018 -0.20821299 0.2946147 -0.015805224 0.057369705 0.33925295 0.11968189 -0.27043495 -0.3012464 -0.13579327 -0.03586017 0.24002761 0.21460617 -0.20440213 -0.020780925 -0.029854903 0.036011998 -0.0025434173 -0.043143924 -0.060495425 -0.36990917 0.34241471 -0.22253811 -0.24291378 0.18988679 0.15251459 -0.2547023 -0.068005219 -0.32871661 -0.30113557 0.15681666 0.24306169 0.66718799 0.24864972 -0.30584624 -0.066500291 -0.17141213 -0.25986445 -0.1617853 -0.014808319 -0.39806798 -0.044745006 -0.14841585 0.27119872 -0.16755548 0.15388046 -0.079256691 -0.2183228 -0.10789193 -0.15425678 -0.21343769 0.31495714 0.13072425 -0.033849221
23 -0.39204943 -0.35522193 0.046179064 -0.085916616 0.19427818 -0.042974867 0.13480002 -0.079253837 0.098832935 0.14090125 0.11978506 0.34522858 0.014375461 -0.23189339 0.03081304 -0.50998163 -0.27539265 -0.23966284 -0.026652135 0.10654084 0.42485884 0.02248198 0.42911175 0.10833535 0.072642073 -0.059802372 -0.19493461 0.18579254 -0.059410889 0.11556314 -0.11709986 0.11873409 -0.33454093 0.19952862 0.011682555 -0.16760066 0.1840311 0.1455338 -0.1749973 -0.075427793 -0.26146767 0.15437849 0.4015975 0.36895245 -0.32895675 0.46282667 0.13793208 -0.16041911 -0.045763273 0.016162975 -0.16049287 0.11855261 -0.02492179 -0.12487572 -0.44013429 -0.31109247 0.072004147 0.28671771 -0.37746185 -0.15669034 0.17882137 -0.1158409 -0.19861716 0.27654499 -0.10175775 -0.18816471 -0.18975577 -0.051272977 0.17191079 -0.16533534 -0.068133846 -0.076164104 0.03674328 -0.38387072 0.32278311 -0.20660888 0.28118843 -0.0073361667 0.010073759 0.10833603 -0.056686983 -0.25339934 -0.18104948 -0.11861093 -0.22597086 0.16791373 0.29555979 -0.11844666 -0.043075498 0.035028473 0.033000275 -0.020908633 0.0025962885 -0.038077772 -0.47730106 0.24033213 -0.27033129 -0.17916824 0.20074356 0.23576534 -0.26972079 0.056760035 -0.32103053 -0.25401372 -0.042057239 0.15161841 0.58782434 0.34381983 -0.19995806 -0.097469442 -0.13708313 -0.1101383 -0.088887468 -0.0075586778 -0.44067839 0.036042124 -0.097368129 0.24418177 -0.26049748 0.11263512 -0.018441612 -0.29778793 -0.024234377 -0.28750226 -0.24647105 0.20625283 0.045362964 0.13709831
97 -0.051728558 -0.25947174 0.43969631 -0.27838862 0.31647456 0.60659748 -0.1503254 -0.39099535 0.24619748 0.56623113 0.2296107 0.3075144 0.041186187 0.19999659 0.65873611 0.10105412 0.1000664 -0.36984122 -0.53274947 -0.58820575 0.56145501 -0.16670255 -0.11094545 -0.21578412 -0.32199895 0.027571322 -0.41261142 -0.032405384 -0.14935926 -0.18212479 0.11406086 -0.091927461 -0.18694307 -0.10658729 -0.011021555 0.020947121 0.26787433 0.10331029 -0.098644942 0.044548586 0.068042606 -0.12732303 -0.40660986 0.10044084 0.050041627 0.14903025 -0.16148089 -0.40728003 -0.14107569 -0.12825865 -0.26392365 0.21890004 -0.38656208 0.46712917 -0.35456139 -0.10486426 0.36633149 0.20107791 0.13744648 0.48410407 0.090701565 -0.11240387 -0.075065173 0.1607071 -0.30173549 0.49516085 -0.24453618 0.31075698 -0.047207233 -0.56269675 0.19237269 -0.093652315 -0.047339559 -0.46860653 0.43603212 -0.10338863 0.16883297 0.31161046 0.07235831 -0.27031505 0.34860367 0.13138513 0.0098837595 0.09777198 0.10486811 0.14021227 0.14496133 -0.17681907 0.39454943 -0.21009316 0.039241664 -0.1606468 -0.31086549 0.0055788257 -0.020429621 0.48674527 0.23140112 -0.36410105 -0.056026224 -0.015007198 -0.012680802 -0.3338083 -0.30833709 -0.072254479 0.35001412 0.25827029 -0.11235428 0.079759099 -0.41035271 -0.35992041 -0.20533885 -0.13683388 0.048246663 -0.20121883 0.12080172 -0.37867388 0.37617528 0.10877477 0.1163706 0.068792909 0.1930365 0.33324462 -0.00073856872 0.046195928 -0.33907273 0.63732964 0.39246675 -0.22626966
21 -0.4672347 -0.41770744 0.06106839 -0.14039248 0.18390381 0.013850448 0.095866829 -0.088541523 0.053487897 0.1562096 0.24559954 0.34229279 -0.057318684 -0.29185143 0.054195493 -0.48359764 -0.26351914 -0.23231728 -0.13449652 -0.12831922 0.54424638 -0.10964979 0.36973423 0.0097113736 -0.081242926 -0.053805821 -0.14207757 0.33016226 -0.034945514 0.00052192202 -0.19140135 0.15631874 -0.35193282 0.41444147 -0.034637425 -0.074055195 0.20944218 0.21388486 -0.050303597 -0.19680054 -0.25040928 0.11262988 0.27852347 0.41126648 -0.35823801 0.41960663 0.096835651 -0.28165373 0.090741254 -0.045394115 -0.29963189 0.10689517 -0.07500083 -0.23228426 -0.42043927 -0.34670883 0.043392263 0.37180829 -0.44731268 -0.080450699 0.36318925 -0.02244146 -0.35604644 0.43087199 -0.077675179 -0.090935618 -0.36911005 -0.1636004 0.028577527 -0.28911775 -0.034088794 -0.054625466 0.15833347 -0.36740237 0.33647338 -0.12966584 0.3775813 -0.06292557 -0.0047310665 0.21074469 0.0012722845 -0.24972701 -0.24450786 -0.15154225 -0.16125096 0.2628895 0.13855091 -0.27116418 0.074335121 -0.094159588 0.12317804 0.049191602 0.062361322 -0.19877791 -0.37016508 0.30478796 -0.21310215 -0.30283305 0.23487982 0.19387199 -0.25486702 -0.092450716 -0.224512 -0.22800046 0.10971602 0.18191302 0.68572211 0.21834005 -0.21648914 -0.22279876 -0.1646013 -0.28526583 -0.15088102 0.01987513 -0.32760322 0.0027152216 -0.15752934 0.43893638 -0.16556147 0.071638465 -0.16313602 -0.19377898 -0.11879525 -0.27292636 -0.28128278 0.22876549 0.15197963 0.076261528
98 -0.011793801 -0.26204357 0.38570711 -0.2693814 0.29584959 0.60193324 -0.11937112 -0.36136317 0.23883153 0.48111063 0.20879281 0.35077938 0.12029138 0.25708711 0.71241796 -0.0056864833 0.089573987 -0.45007467 -0.47951397 -0.53138924 0.53205246 -0.23144309 -0.12078134 -0.10609698 -0.35824826 0.11138903 -0.41767925 -0.12071706 -0.12162777 -0.24197257 0.11333361 -0.080023594 -0.15072663 -0.12802552 -0.048038904 0.0087171448 0.32287088 0.07715904 -0.01971028 0.082560241 0.026009735 -0.13072735 -0.38504484 0.07267388 0.041568048 0.21274932 -0.10446227 -0.45242932 -0.23501457 -0.13409844 -0.32714823 0.16788983 -0.31810692 0.42656714 -0.33707309 -0.14409836 0.32421833 0.078213952 0.10989523 0.47462571 0.066146776 -0.099397548 -0.021091454 0.1966846 -0.35671955 0.50255632 -0.27884278 0.33122709 0.020391602 -0.52616185 0.1742411 -0.14467636 0.035147186 -0.43762809 0.42998442 -0.13714577 0.13528456 0.41156775 0.06919793 -0.27824613 0.37424591 0.088363573 -0.057089161 0.0628502 0.070440665 0.2322142 0.11801964 -0.1165434 0.37396464 -0.093729183 0.070522428 -0.093247116 -0.40898848 0.061855432 -0.030548271 0.4115811 0.27535808 -0.39782599 -0.094444945 0.016947616 0.042567953 -0.35739505 -0.25177386 -0.049478352 0.3846724 0.26097134 -0.075211696 0.018698076 -0.46807653 -0.32379848 -0.2006471 -0.078226507 0.0024446445 -0.24021891 0.056355577 -0.39667845 0.34453797 0.10419887 0.018848617 0.10068957 0.24195063 0.32875973 -0.027602963 0.13336694 -0.23667544 0.59444046 0.42256442 -0.21118574
22 -0.45765719 -0.41334763 0.039065413 -0.090882011 0.23319487 -0.022869119 0.15287273 -0.088955648 0.11189543 0.19691323 0.17266612 0.37489325 -0.0093309134 -0.26193291 0.039940663 -0.53510606 -0.30770567 -0.25971368 -0.1035516 0.073335029 0.5130617 -0.082866944 0.48879656 0.032951526 0.057001818 -0.041262466 -0.23808777 0.26872361 -0.082504034 0.10486013 -0.1496598 0.17447907 -0.37519729 0.30116656 -0.0063624908 -0.12123319 0.20135614 0.18538038 -0.16734236 -0.1428562 -0.28788534 0.19432466 0.34610221 0.3783071 -0.38369459 0.48350608 0.13570927 -0.2073978 0.020254796 -0.017260464 -0.23050368 0.13004473 -0.05708719 -0.20706238 -0.409208 -0.34785011 0.086679451 0.33356184 -0.43110064 -0.19692513 0.26868546 -0.064133786 -0.30553058 0.38262969 -0.066070206 -0.18908368 -0.32509765 -0.10178793 0.15101524 -0.18396546 -0.065159582 -0.05767392 0.069294386 -0.42456421 0.34160069 -0.19508824 0.30920517 0.00096261583 0.013495461 0.23467691 0.0095907738 -0.27576229 -0.23921032 -0.15561081 -0.16492803 0.22676022 0.2695086 -0.18607785 -0.038032006 -0.0058722752 0.047455251 -0.018887801 0.03265848 -0.10383766 -0.44773084 0.3209607 -0.25097004 -0.21779682 0.22123651 0.191476 -0.29245752 -0.0068940474 -0.34334648 -0.28265059 0.086658418 0.19424947 0.67378861 0.27824432 -0.24254698 -0.12671791 -0.15258515 -0.21247643 -0.13909927 -0.010558612 -0.429391 -0.0012578563 -0.15469475 0.30388555 -0.20723973 0.1287277 -0.074136585 -0.28502825 -0.06907627 -0.25666428 -0.26496428 0.25165087 0.099779241 0.0575766
87 -0.075594544 -0.30857027 0.45080522 -0.28956264 0.33220047 0.62101537 -0.14296493 -0.40735728 0.27153122 0.57754314 0.23489098 0.35569349 0.05906941 0.19565652 0.69458795 0.044462577 0.07577844 -0.41630736 -0.54129785 -0.5818367 0.61172521 -0.18134569 -0.080448963 -0.19447245 -0.33147773 0.054993514 -0.45156458 -0.037155882 -0.15638626 -0.19155946 0.11508612 -0.080969438 -0.20893502 -0.10738154 -0.0063033476 -0.0025574779 0.30266774 0.11902148 -0.10294019 0.05166629 0.025551733 -0.12708557 -0.39199382 0.13130686 0.029278263 0.20882358 -0.15200707 -0.44859016 -0.16457602 -0.13184908 -0.30437317 0.22406706 -0.39157546 0.46901232 -0.394539 -0.13853291 0.38001448 0.19769557 0.11144195 0.48530298 0.10799533 -0.12599793 -0.078626096 0.19101296 -0.32266173 0.48590195 -0.26865962 0.31819358 -0.024123803 -0.57711583 0.18606758 -0.10855604 -0.036574684 -0.50338191 0.4815942 -0.13210665 0.194829 0.340193 0.062314462 -0.27278119 0.34752986 0.1032926 -0.014558125 0.090903737 0.076578446 0.18049657 0.17494348 -0.18738294 0.38969967 -0.18299213 0.0406629 -0.16232301 -0.32789996 0.0063161412 -0.064987533 0.51066852 0.23126745 -0.38693902 -0.047830146 -0.00037430326 -0.014972937 -0.34630382 -0.33848247 -0.096724786 0.36892185 0.2722778 -0.069776699 0.095867887 -0.44095969 -0.38042212 -0.22401834 -0.1385407 0.030633708 -0.22069275 0.079159342 -0.39203581 0.36739868 0.12634227 0.075298339 0.086392857 0.2027536 0.31938821 -0.0078208689 0.032685842 -0.35932308 0.67003471 0.41679347 -0.23188527
84 -0.061985269 -0.21514118 0.38715008 -0.30105391 0.29515415 0.64293969 -0.16253878 -0.2938576 0.18994953 0.58555239 0.18657131 0.096041076 -0.0060608233 0.091901131 0.28512317 0.28520498 -0.057166599 -0.085479721 -0.43493035 -0.53700995 0.37079379 -0.051280349 -0.045405306 -0.4354082 -0.046529338 -0.13713151 -0.21211699 0.23231564 -0.066848837 -0.018860431 0.034728862 -0.24163783 -0.2068318 -0.095061779 0.039462537 0.071689904 0.063825369 0.079598427 -0.23613138 0.11013884 0.25894052 -0.036459271 -0.3007488 -0.039336368 -0.017935183 0.046505328 -0.28250659 -0.16700481 0.1420922 -0.029224867 -0.093961887 0.18424231 -0.38801622 0.24359356 -0.33939666 0.029551201 0.25369239 0.46300766 0.084920868 0.38461569 0.15492374 -0.14849134 -0.25581604 0.15594848 -0.14955941 0.39767835 -0.077064149 0.16815123 -0.15424761 -0.47687045 0.098860264 -0.028489942 -0.10972541 -0.53063619 0.20654866 -0.0042625288 0.24431674 -0.066823706 0.1071848 -0.14346261 0.43413445 0.16170518 -0.036906276 0.18406841 0.16467722 -0.057994559 0.21207036 -0.24294701 0.51918364 -0.3121973 0.10273626 -0.28197053 -0.22795729 0.025005983 0.054659545 0.46288788 0.19010121 -0.42124581 -0.072845183 -0.028418915 -0.18454741 -0.065614015 -0.37653038 -0.06675043 0.17647223 0.26547983 -0.26860434 0.15875195 -0.29270583 -0.34767857 -0.13259289 -0.19140887 0.20109929 -0.15670162 0.18841812 -0.31601605 0.36235932 0.14374213 0.21646652 0.073916718 -0.019806365 0.36663586 0.0097675649 0.072809622 -0.42036617 0.6121006 0.096879423 -0.23054956
96 -0.085560217 -0.27170685 0.44078669 -0.27044591 0.30875975 0.57164752 -0.15073699 -0.38241416 0.22731121 0.59507203 0.23155399 0.27256194 -0.02776118 0.14407094 0.59751546 0.12786062 0.088126592 -0.32123402 -0.54105592 -0.59679848 0.58364207 -0.11826531 -0.081085168 -0.25405535 -0.28058323 -0.018656753 -0.37586138 0.037650045 -0.15466787 -0.12255245 0.09919361 -0.083512716 -0.21481195 -0.061820596 0.023635002 0.011979993 0.22571418 0.13186058 -0.13679101 0.003739408 0.056100313 -0.10805596 -0.3893826 0.11522844 0.040666904 0.11497595 -0.17465362 -0.36581033 -0.079070292 -0.10959542 -0.22429277 0.23396327 -0.40946367 0.44983605 -0.35372031 -0.11182392 0.37282735 0.26467559 0.12274621 0.45356646 0.127786 -0.1088817 -0.11361007 0.14914982 -0.27038544 0.44372374 -0.21887621 0.27710077 -0.096748225 -0.56383932 0.17998505 -0.063599914 -0.088991858 -0.46985233 0.43213296 -0.071994543 0.18815783 0.23564424 0.046999533 -0.25105229 0.32480332 0.10786109 0.035642281 0.11055882 0.099250026 0.10766605 0.17360213 -0.21678659 0.38423392 -0.2533997 0.019511491 -0.19912422 -0.22649637 -0.056084961 -0.039762925 0.52394003 0.19630173 -0.33894736 -0.032498039 -0.0095134638 -0.055818442 -0.30236566 -0.35120213 -0.099081248 0.32015857 0.24282619 -0.10390043 0.10057898 -0.35777488 -0.39055303 -0.18814322 -0.18190409 0.068379462 -0.18219997 0.13284597 -0.36773714 0.35226789 0.13991739 0.1597687 0.069518514 0.15719496 0.30762768 0.0052216589 -0.016428821 -0.39284554 0.64064163 0.34737986 -0.21890737
70 0.060433146 -0.32516745 0.09191341 -0.42852515 0.3045308 0.69304645 -0.068891495 -0.075131811 0.19273427 0.43987083 -0.01497336 -0.001378 0.13888739 0.099652335 -0.11621499 0.1773918 -0.30920458 -0.062589005 -0.27713814 -0.39226821 0.25925601 -0.1568514 -0.074052684 -0.50411028 0.17033336 -0.10578147 0.057525814 0.41466692 0.081366621 0.21168578 -0.056999426 -0.33945823 -0.27565625 -0.042957973 0.0069262898 0.11846612 0.1330111 -0.0005206865 -0.084543414 0.31059 0.30428863 -0.013959798 -0.14395319 -0.13890408 -0.25701338 0.20374875 -0.38455504 -0.051003024 0.31119612 0.048848659 -0.030007534 0.0051480499 -0.070101716 -0.19922772 -0.19884817 0.14685027 -0.13371755 0.49442697 -0.15038691 0.071766622 0.41914067 -0.22880487 -0.5061909 0.48452371 -0.11661673 0.35374463 -0.074396066 -0.067479007 -0.18270157 -0.4501335 -0.096190646 0.058217511 0.16571505 -0.52248693 -0.0059863846 0.068577059 0.2809996 -0.25522882 0.13113387 0.028155867 0.67203504 0.046466738 -0.28862834 0.057170339 0.081992939 -0.011096203 0.25586894 -0.18876125 0.60045046 -0.21625145 0.41146091 -0.20197183 -0.29556695 0.062628254 0.043171067 0.34453821 0.29726315 -0.73279041 -0.18023171 0.079723477 -0.53999937 0.268253 -0.29125094 0.037576374 0.16974193 0.30015847 -0.16094427 0.092504553 -0.26342332 -0.44410455 -0.029782332 -0.24697518 0.2734814 -0.17299889 0.060039137 -0.22218695 0.12663066 0.3731235 0.12245809 0.09971685 -0.25705314 0.152605 -0.039429653 0.27282032 -0.38367704 0.39173755 -0.35748062 -0.19032754
73 0.043059107 -0.2065137 0.25925177 -0.36104101 0.28016764 0.68545997 -0.13429309 -0.18452604 0.21839912 0.40703386 0.061331123 0.058429241 0.21549037 0.14468467 0.094535306 0.24051389 -0.20999326 -0.013137758 -0.2707614 -0.33910668 0.14763011 -0.11833459 -0.045866691 -0.45652655 0.087198712 -0.054213088 -0.15163808 0.23487039 0.024160279 -0.026846103 0.0029201217 -0.36920914 -0.1480583 -0.19589436 -0.034141488 0.08140666 0.041696921 -0.028158307 -0.17895885 0.30732927 0.35563633 -0.024362324 -0.17904583 -0.17625509 -0.095372275 0.1569411 -0.31198704 -0.10591446 0.1838695 0.02691257 -0.11546198 0.079101972 -0.21322474 0.038864542 -0.2863296 0.1491155 0.067440353 0.43362918 0.023478687 0.2897484 0.15813221 -0.22569108 -0.28060803 0.23598966 -0.11542883 0.39863974 -0.0086975964 0.083030537 -0.045068767 -0.32076707 0.011474492 -0.051524285 0.039722536 -0.54859954 0.050279614 -0.033696018 0.25681871 -0.16111583 0.18595664 -0.066998862 0.572052 0.17259972 -0.2087767 0.17418207 0.16227838 -0.0567169 0.21485719 -0.17104626 0.59998381 -0.19663258 0.253288 -0.23594953 -0.41423091 0.22451377 0.10555626 0.30209413 0.2629236 -0.58033085 -0.13017999 -0.049628299 -0.24127556 0.096710123 -0.29620048 0.0023342241 0.12824427 0.30484423 -0.33988962 0.15842344 -0.35450721 -0.27548301 -0.1307839 -0.10622138 0.24201542 -0.17506965 0.13640431 -0.28489652 0.32709664 0.12807174 0.10470868 0.069658846 -0.10302258 0.38141862 -0.0063546826 0.26537436 -0.29429457 0.52986437 -0.072153978 -0.25639653
80 0.035319582 -0.34434357 0.12289748 -0.43482092 0.33170992 0.7461043 -0.060208086 -0.11399758 0.17294714 0.48941064 0.015217532 -0.0051659616 0.10230478 0.1189189 -0.059188195 0.18428299 -0.27911031 -0.11275839 -0.34231892 -0.501531 0.35159722 -0.16951509 -0.10985731 -0.49710727 0.1125669 -0.12335037 0.057423316 0.41834155 0.063014887 0.21486408 -0.049419224 -0.32278594 -0.30440018 -0.0079128426 0.021335138 0.14234854 0.16486989 0.02435993 -0.081063241 0.27579963 0.28433368 -0.030408863 -0.18202402 -0.10970528 -0.24885982 0.1903332 -0.37945417 -0.092035733 0.3047936 0.031476218 -0.033060424 0.014343402 -0.10868797 -0.17349146 -0.21478978 0.11597454 -0.10721053 0.49261537 -0.15020423 0.10888167 0.45087019 -0.20552312 -0.51786166 0.51761502 -0.155276 0.37878665 -0.12287574 -0.039010953 -0.23429848 -0.54739434 -0.052546091 0.048771005 0.16545202 -0.52430528 0.028036607 0.068191096 0.27026385 -0.22735722 0.11941817 0.0034934992 0.68748832 0.038386591 -0.2783027 0.049397074 0.090960331 0.0085808802 0.22891186 -0.19656101 0.62050825 -0.25105712 0.40557143 -0.1949967 -0.27999467 0.0084218569 0.039772913 0.38360703 0.31434301 -0.7565192 -0.20834075 0.12259859 -0.552086 0.23316675 -0.3003608 0.033586919 0.21003114 0.31333807 -0.12890616 0.079155654 -0.26828283 -0.50313145 -0.020236328 -0.28565145 0.28461525 -0.1807303 0.060263269 -0.25279599 0.14605728 0.42079642 0.15782967 0.11067354 -0.23874998 0.14890118 -0.055009272 0.27221355 -0.41576731 0.42412564 -0.34025359 -0.18100072
62 0.070670202 -0.28196135 0.14767291 -0.41009054 0.27517688 0.69596231 -0.098759487 -0.1062476 0.27687946 0.36240736 -0.030213755 0.052326463 0.3185772 0.10645895 -0.12996322 0.15774845 -0.39218292 0.023334499 -0.15752336 -0.16792792 0.051845208 -0.12094017 0.061063997 -0.50632942 0.27296165 -0.032028802 -0.090990573 0.32079872 0.08209794 0.085924052 -0.044752169 -0.43212786 -0.1754903 -0.23421472 -0.033279642 0.052364714 0.035117399 -0.068329759 -0.19116688 0.44419518 0.38072202 0.024915865 -0.050753795 -0.20707737 -0.2201134 0.3021338 -0.36114648 -0.03463107 0.26802051 0.088826798 -0.09816049 0.018806931 -0.096873142 -0.15642899 -0.2839157 0.23079467 -0.09455891 0.51337439 -0.094539933 0.141587 0.22702411 -0.31598285 -0.38930932 0.34871057 -0.05757362 0.305273 0.06316977 -0.0052779601 -0.0013340409 -0.25934196 -0.11005118 -0.037620611 0.091579415 -0.62072593 -0.026187977 -0.040766273 0.30680299 -0.2624633 0.19399552 0.0026144795 0.62028873 0.14452332 -0.31503266 0.14341623 0.089541294 -0.069415249 0.31813774 -0.13504863 0.59895062 -0.1398017 0.35681805 -0.26268449 -0.43238717 0.32477006 0.048114926 0.24155034 0.24021035 -0.66986412 -0.14174378 -0.033681046 -0.37350821 0.29298204 -0.33641678 -0.010432921 0.059597045 0.33858728 -0.31037423 0.21658906 -0.36780763 -0.2626088 -0.11707082 -0.072190255 0.28095657 -0.19245748 0.043167613 -0.22759907 0.26351109 0.14309125 0.010345097 0.083236367 -0.21644041 0.26793909 -0.0044051115 0.29809368 -0.313079 0.45839944 -0.27103725 -0.25078318
92 -0.011132976 -0.25770399 0.25904125 -0.36537039 0.31683213 0.72669369 -0.10134877 -0.23310009 0.15981753 0.54421145 0.11121405 0.034718186 0.04952905 0.14116514 0.14749807 0.24145049 -0.13904922 -0.13006258 -0.40279362 -0.55582207 0.37390158 -0.13792327 -0.11133654 -0.45082709 -0.0073769321 -0.11212935 -0.074071914 0.30435663 -0.0067936615 0.093418032 0.002649246 -0.27009115 -0.24325249 -0.035161115 0.033174936 0.13814969 0.12066047 0.050103631 -0.14329462 0.18358578 0.27799207 -0.040717367 -0.26741731 -0.077989385 -0.11293217 0.09153714 -0.32000238 -0.1508176 0.20171092 -0.015575528 -0.072248027 0.080050051 -0.24758331 0.034219563 -0.25347126 0.079649284 0.087684371 0.44138104 -0.01552266 0.27394417 0.29334787 -0.13077182 -0.3716135 0.33449662 -0.17289728 0.39146397 -0.12613004 0.091386005 -0.22014971 -0.53369606 0.060502373 -0.025369802 0.034972802 -0.49414873 0.10280464 0.032234311 0.21756977 -0.11222168 0.11959921 -0.08643125 0.56684357 0.10701597 -0.15919338 0.13479941 0.15924972 -0.013694854 0.15387332 -0.19382761 0.56583065 -0.2851482 0.23733556 -0.21478991 -0.27163783 0.0037020484 0.079023309 0.39740187 0.27241939 -0.57658094 -0.18461975 0.060050141 -0.3276332 0.050951276 -0.30142903 -0.0096294135 0.21427357 0.28754935 -0.19690831 0.087023318 -0.2885024 -0.43556672 -0.062048461 -0.23959357 0.23732212 -0.1587795 0.13537192 -0.30948126 0.26900044 0.2851699 0.20718624 0.11010306 -0.088568971 0.26651195 -0.035080016 0.21205175 -0.38413993 0.50680888 -0.10080823 -0.20955995
94 -0.10569777 -0.23984082 0.43146729 -0.31960845 0.3146978 0.67094767 -0.18548153 -0.32014832 0.1886948 0.65922606 0.23284242 0.099753924 -0.072689988 0.053788222 0.29547089 0.32137787 -0.055899203 -0.076503135 -0.49470446 -0.61803484 0.44548693 -0.02524092 -0.030978534 -0.48617887 -0.041762326 -0.17763729 -0.21803616 0.28828737 -0.09029717 0.00021293369 0.02566394 -0.25041011 -0.2359568 -0.071060717 0.058307014 0.062491033 0.051907267 0.11015063 -0.28120118 0.08089976 0.27412006 -0.036398813 -0.33035216 -0.0095004318 -0.020388059 0.016360659 -0.30528986 -0.17176265 0.18203142 -0.024699628 -0.092154838 0.22271569 -0.45917475 0.2806294 -0.38709879 0.017539386 0.30035356 0.54017705 0.094974399 0.40969035 0.18261723 -0.15895067 -0.30323988 0.14905328 -0.14700493 0.40846488 -0.073279895 0.1736358 -0.20486124 -0.53068304 0.11109708 -0.0074976338 -0.15131113 -0.59176069 0.24824958 0.009679622 0.28622061 -0.10278937 0.105544 -0.14698282 0.43179667 0.17360237 -0.0049347589 0.19943129 0.17523238 -0.077503465 0.24425186 -0.29902375 0.55658984 -0.37063485 0.091127664 -0.32806852 -0.18333878 -0.028778084 0.050349869 0.54032874 0.17217094 -0.4318442 -0.048948206 -0.041213132 -0.22343817 -0.073968336 -0.43687695 -0.091502957 0.19080852 0.28317896 -0.26746038 0.19592308 -0.29733056 -0.39713293 -0.14220999 -0.24558337 0.22070287 -0.16153988 0.2158758 -0.34393635 0.39173007 0.17520463 0.27636099 0.069099605 -0.037156653 0.39709201 0.012043756 0.025573716 -0.50969839 0.68989843 0.10915525 -0.23683766
61 0.064029388 -0.32271707 0.10673305 -0.43682474 0.2925052 0.69015276 -0.080337562 -0.075676143 0.24641617 0.40405828 -0.026543748 0.040684395 0.22282778 0.095062584 -0.12183582 0.14841492 -0.35913435 -0.033427719 -0.23422623 -0.29559207 0.17345162 -0.15594709 -0.011809416 -0.51809603 0.22635585 -0.073684871 -0.010508328 0.38744736 0.092645094 0.15222166 -0.060539931 -0.38913414 -0.24362059 -0.12954494 -0.020352289 0.080946058 0.10739093 -0.039648436 -0.11331868 0.37198952 0.34287518 -0.0022813985 -0.09396778 -0.16528033 -0.25553671 0.2710945 -0.38729393 -0.050079565 0.3041124 0.07468982 -0.071515292 0.011117491 -0.070000544 -0.18877572 -0.24924847 0.18190125 -0.13464895 0.5109393 -0.13913576 0.086593777 0.3526746 -0.29745615 -0.46474311 0.45551816 -0.089172579 0.35266861 -0.022546368 -0.060024668 -0.091740645 -0.37491375 -0.12756804 0.034392402 0.15335047 -0.59190071 0.0029289243 0.02651982 0.31831881 -0.26523322 0.16413824 0.02165419 0.67802167 0.084867738 -0.32316375 0.078217119 0.06520199 -0.023756707 0.31471154 -0.18410109 0.62570262 -0.1722742 0.41528636 -0.22770549 -0.36724472 0.17489524 0.031117864 0.32120183 0.28693289 -0.75062889 -0.15574472 0.028381478 -0.49896571 0.29351893 -0.31909993 0.02287326 0.12811892 0.32016295 -0.22611441 0.14932816 -0.32424432 -0.38542613 -0.07720042 -0.17869188 0.27984062 -0.19607881 0.041078955 -0.21932334 0.17118847 0.30224854 0.058149546 0.089715742 -0.26305163 0.20658839 -0.027110238 0.28666475 -0.36125109 0.43372744 -0.33364445 -0.21354571
86 -0.069290899 -0.28730232 0.44961372 -0.3076922 0.34058017 0.64046276 -0.15964483 -0.37976813 0.2335117 0.62570244 0.23004337 0.24065192 -0.010363703 0.1554715 0.56744647 0.18910411 0.066796452 -0.28652412 -0.56637263 -0.65235174 0.5831269 -0.13192956 -0.11610959 -0.3232182 -0.26870096 -0.050063975 -0.35406888 0.098191597 -0.14827438 -0.10232917 0.090071559 -0.13679619 -0.24567167 -0.058283374 0.012371968 0.051898394 0.22818559 0.11844374 -0.13626437 0.044595841 0.12584381 -0.11704572 -0.40209049 0.087996989 0.015981553 0.10254175 -0.23122919 -0.35658804 -0.024117446 -0.11106203 -0.20112483 0.23400436 -0.4097071 0.41371825 -0.36775973 -0.083217531 0.35135415 0.32973474 0.11159456 0.45985851 0.17406833 -0.11801542 -0.18480735 0.20022559 -0.27737218 0.50053018 -0.23410292 0.25252524 -0.12647879 -0.59328419 0.18102325 -0.039766353 -0.058598559 -0.50711769 0.39593807 -0.055773832 0.20885232 0.18084282 0.074908927 -0.2228957 0.40457329 0.13219488 0.0093799205 0.11967116 0.13973637 0.081176937 0.17343856 -0.24282773 0.46726841 -0.29730639 0.076139852 -0.20215905 -0.25522059 -0.053035181 -0.0080065224 0.55526501 0.2418479 -0.41778702 -0.050270434 -0.0039800107 -0.11957055 -0.27867427 -0.34783733 -0.067887023 0.33923385 0.27594167 -0.13463357 0.10538623 -0.36421999 -0.42291415 -0.18854001 -0.21695423 0.10401881 -0.18070605 0.16564251 -0.37500951 0.36318976 0.178546 0.18932182 0.064173788 0.11682659 0.34310937 -0.0010134571 0.032330073 -0.42636606 0.67710769 0.30198026 -0.24035996
95 -0.093320683 -0.25033417 0.47003296 -0.30093765 0.32782668 0.63451445 -0.17887917 -0.36457288 0.2156629 0.65389448 0.24086088 0.17233479 -0.065797977 0.096472226 0.45977643 0.26726672 0.037282482 -0.17755276 -0.53798401 -0.63446146 0.51645494 -0.059486985 -0.070035353 -0.39701805 -0.17583972 -0.12306701 -0.30999801 0.17429307 -0.13288718 -0.062973231 0.069883913 -0.17012388 -0.23811463 -0.067457013 0.041393671 0.047597967 0.12848271 0.12111881 -0.22264569 0.032000199 0.18428127 -0.081806116 -0.38607705 0.052908476 0.032622725 0.038403861 -0.26099822 -0.2646158 0.068831958 -0.0765137 -0.14196961 0.24584073 -0.45744321 0.39826596 -0.3772136 -0.04386666 0.35080478 0.42621991 0.12881531 0.45810038 0.15571293 -0.13437708 -0.21048859 0.13289435 -0.2063583 0.44906858 -0.1496886 0.22888924 -0.16163287 -0.55562609 0.15846874 -0.017667403 -0.13575931 -0.52660644 0.33888826 -0.023205476 0.24182643 0.054961082 0.077783614 -0.20412825 0.3759346 0.16242614 0.045059852 0.16507153 0.15750416 -0.010161478 0.20988207 -0.27213961 0.48116022 -0.34980071 0.044842847 -0.28029332 -0.19145691 -0.047892619 0.021129176 0.56048149 0.18885705 -0.37801483 -0.030038139 -0.03748918 -0.14354432 -0.20731448 -0.40340471 -0.092821456 0.26293418 0.26635569 -0.21441586 0.15042734 -0.31510043 -0.40354231 -0.16801493 -0.22192985 0.15370636 -0.15888232 0.21300845 -0.36541253 0.38434619 0.14310367 0.24260356 0.059280172 0.060370192 0.37175432 0.018254399 -0.014444752 -0.47500747 0.68924743 0.23906153 -0.24268921
91 0.0073665818 -0.28896582 0.21610817 -0.38955805 0.32697853 0.72401738 -0.088419728 -0.18724139 0.17036159 0.5214228 0.080227651 0.01193517 0.076533049 0.1310612 0.07603386 0.22634864 -0.18132496 -0.11619211 -0.39095268 -0.54658765 0.3724626 -0.14764687 -0.11940385 -0.46466666 0.026974311 -0.12452119 -0.028797589 0.34815568 0.0084679732 0.12958373 -0.0084585063 -0.30136636 -0.27178973 -0.023543049 0.018593755 0.14203149 0.14236233 0.046974391 -0.11418507 0.22062938 0.27761161 -0.033893734 -0.23588307 -0.092700876 -0.16544299 0.12515426 -0.34887892 -0.13672039 0.23859496 -0.00056691235 -0.063743666 0.062658392 -0.19462115 -0.033276156 -0.24640162 0.084174767 0.018781949 0.45818111 -0.066379994 0.21542737 0.35847226 -0.15912278 -0.43066457 0.40402558 -0.17074555 0.40048841 -0.13428427 0.039749805 -0.21660648 -0.53745449 0.020069346 0.011063613 0.099367857 -0.49954605 0.081789538 0.044488408 0.23800635 -0.14660877 0.11903503 -0.039673105 0.61857814 0.086130448 -0.20763779 0.10277098 0.13168854 0.0034418278 0.1747933 -0.20745188 0.59145379 -0.2766442 0.30639058 -0.2010545 -0.27889192 -0.0010297592 0.073884591 0.39951286 0.29907936 -0.65170419 -0.18605244 0.075096369 -0.4145191 0.10731333 -0.29356244 0.017208809 0.22655514 0.29431865 -0.16143322 0.075018726 -0.26818949 -0.45494482 -0.05548979 -0.25895965 0.25244987 -0.16216859 0.11010927 -0.28253114 0.21710496 0.34102407 0.2007501 0.099400342 -0.14932862 0.23712054 -0.038931116 0.23145629 -0.39990777 0.48800245 -0.17663756 -0.19933167
88 -0.057217356 -0.28256157 0.44146192 -0.26414141 0.29377815 0.61364412 -0.14351642 -0.39954716 0.26786447 0.52892238 0.23884003 0.40035421 0.099779338 0.22106308 0.72596151 -0.018904591 0.063322932 -0.44993743 -0.48252237 -0.50729311 0.54840046 -0.18796994 -0.047769792 -0.12984197 -0.32885408 0.099391274 -0.47535312 -0.12161504 -0.12843692 -0.25127745 0.10495827 -0.076791041 -0.14376481 -0.1573149 -0.026668893 -0.027793977 0.2931464 0.090334326 -0.088796034 0.07431189 0.019166268 -0.11429922 -0.36356351 0.10221297 0.038434014 0.24950863 -0.099948943 -0.46045002 -0.23265716 -0.12207517 -0.34115896 0.2053436 -0.38106179 0.47548297 -0.40129665 -0.13664173 0.37637907 0.14130631 0.12149739 0.50166792 0.022691248 -0.13585111 -0.003752064 0.16054583 -0.33133414 0.46638906 -0.23033224 0.35631406 0.043011241 -0.52997226 0.16683832 -0.15745774 -0.040121723 -0.51876158 0.47822028 -0.15582171 0.18200783 0.39761379 0.068387643 -0.30554798 0.33102924 0.11005238 -0.037658453 0.084960654 0.052049279 0.20574388 0.18781894 -0.14624514 0.36422315 -0.11083289 0.031643126 -0.15583453 -0.39203084 0.096174143 -0.073936805 0.44047064 0.21022294 -0.36558273 -0.049172979 -0.0068290494 0.063166313 -0.34012234 -0.33433169 -0.09729784 0.33466747 0.27212313 -0.092311576 0.095676295 -0.4995828 -0.3077369 -0.23331456 -0.055314656 0.0076810457 -0.25283417 0.033317182 -0.40169346 0.39461085 0.06292215 -0.0013287342 0.10446987 0.23900297 0.33238456 -0.0098317228 0.063945316 -0.28496379 0.65041798 0.45002869 -0.21797667
19 0.090961687 -0.37264651 0.10826738 -0.17157272 0.03232966 0.33830255 -0.071471713 -0.18721363 0.52076513 0.44489455 -0.11674178 0.4876107 0.13525707 -0.015699547 0.051187422 -0.37019545 -0.34832647 -0.43363053 -0.044725504 0.37126505 0.15685195 -0.039312135 0.44674644 -0.20309521 0.2341322 0.41432133 -0.34661281 -0.10438625 0.032660507 0.17882624 0.056422461 0.076095924 0.11999423 -0.46372437 0.11413255 -0.44777539 0.21556899 -0.01592893 -0.15837303 0.3104637 -0.19767518 -0.003205237 -0.20329338 0.19567984 -0.076187812 0.68313193 -0.219687 -0.21923248 -0.11562383 0.057951923 -0.3531523 -0.044546492 -0.050758187 0.20874222 -0.14163883 0.29719025 -0.13780549 0.11261423 0.075936511 -0.048103105 -0.14891325 -0.43347096 0.059630238 0.13212492 0.14568076 -0.19187506 0.33561647 0.20015843 0.067413628 -0.22601186 -0.26729763 0.034564812 -0.29265943 -0.46516114 0.28403747 -0.011129163 0.15616231 0.33107594 -0.11401048 -0.27177015 -0.090747334 0.084286474 0.12029216 -0.025209451 -0.47401586 0.028322428 0.62831193 0.11442441 -0.15447249 0.10723922 0.025894722 -0.45612574 0.17856693 0.27407688 -0.30476558 0.10127165 -0.048423696 0.027633436 -0.020733623 -0.25556269 -0.10136747 0.33526307 -0.63459629 -0.31377906 0.068135954 0.11563568 -0.23472942 0.11248279 -0.32423979 -0.31242141 -0.1241518 0.30924746 0.13018368 -0.38232461 -0.18953103 -0.14169435 0.097241551 -0.24370578 -0.20859481 0.081176199 -0.052435201 -0.29350483 0.036906388 -0.18790913 -0.3215341 -0.010120885 -0.076483391 -0.21644732
85 -0.079717092 -0.26725975 0.4264887 -0.32409829 0.33147991 0.65074134 -0.16879533 -0.33882698 0.2144572 0.63245916 0.21127088 0.15202998 -0.033056121 0.10589232 0.40789336 0.25683981 -0.010347671 -0.16363955 -0.52046669 -0.61797142 0.49890327 -0.077410363 -0.078737862 -0.41584691 -0.13607052 -0.12224437 -0.2742624 0.20522398 -0.11546477 -0.033864468 0.05834233 -0.20394105 -0.24487725 -0.064744964 0.028519599 0.062976427 0.12999782 0.11386265 -0.20753402 0.076479405 0.20899521 -0.073160477 -0.35828012 0.025785668 -0.010850482 0.060743012 -0.2759971 -0.25034443 0.091260865 -0.054868683 -0.13344319 0.21982364 -0.41718367 0.33192003 -0.3646493 -0.023954779 0.30608797 0.44120458 0.095061101 0.41820809 0.19245408 -0.14994968 -0.2566908 0.18210398 -0.19998516 0.44944862 -0.14861228 0.1988194 -0.15670687 -0.54425031 0.13276508 -0.011181907 -0.096295565 -0.54223508 0.30720937 -0.021019939 0.24849196 0.022325614 0.085805848 -0.16842088 0.42644927 0.14943866 -0.007623164 0.15126115 0.15858057 -0.0049098353 0.21225612 -0.26614684 0.50770003 -0.33155704 0.091329716 -0.26270568 -0.21914352 -0.038941689 0.020967871 0.53977245 0.21485247 -0.43306801 -0.054745559 -0.024207668 -0.19094828 -0.16004476 -0.3887265 -0.074543208 0.26387757 0.27906236 -0.20195813 0.14484331 -0.32364774 -0.40963578 -0.15539877 -0.23432626 0.16153222 -0.16334103 0.19638243 -0.35051537 0.36467227 0.17573872 0.23285478 0.060897548 0.028302941 0.36402047 0.0067135394 0.032519761 -0.46850482 0.67432898 0.17498632 -0.24659008
63 0.11439745 -0.22977446 0.19190124 -0.38004407 0.24423173 0.70128554 -0.12726258 -0.14059347 0.30969143 0.36933321 -0.043279365 0.063192971 0.34283751 0.13278855 -0.092080235 0.18596163 -0.35979226 0.034631811 -0.13830219 -0.10863761 -0.031100111 -0.10089504 0.060757246 -0.50927377 0.26146671 0.02618999 -0.14819358 0.23797695 0.08430814 0.040305432 -0.0023390737 -0.43545434 -0.089353569 -0.32842395 -0.033840567 0.016779041 0.011850948 -0.089845106 -0.2087947 0.47370383 0.40569428 0.017485246 -0.10392074 -0.23750538 -0.1417858 0.2965481 -0.37278327 -0.047948577 0.22988555 0.089442179 -0.12082141 0.010032373 -0.11389555 -0.075920723 -0.26241291 0.30723503 -0.059168879 0.45693424 -0.0086632092 0.19098218 0.11293004 -0.329761 -0.29712045 0.24901967 -0.009176936 0.29024151 0.14700143 0.044006858 0.018862467 -0.20164852 -0.10634691 -0.048625939 0.024798071 -0.61594129 -0.039040681 -0.037211761 0.27429292 -0.21867898 0.19300114 -0.043993328 0.57361156 0.20939335 -0.26600635 0.18544719 0.083654478 -0.11062908 0.3343305 -0.10392746 0.56810743 -0.12355608 0.31360129 -0.30028847 -0.42765483 0.39376599 0.083144061 0.18105035 0.23300362 -0.59742671 -0.15745918 -0.10922077 -0.28442582 0.29875693 -0.34712905 -0.016906049 0.031538222 0.32023281 -0.44596532 0.21016741 -0.38135895 -0.22538881 -0.12709309 0.015331022 0.29918644 -0.21763486 0.076212473 -0.23353191 0.31896305 0.028946934 0.0032020456 0.068986185 -0.1932638 0.3002615 0.0155041 0.3073124 -0.27710584 0.43773708 -0.23080291 -0.29165652
30 -0.41843057 -0.3999902 0.026050201 -0.095470153 0.23712167 0.081720136 0.14527842 -0.10052669 0.10030782 0.25971323 0.22179045 0.30912155 -0.08103171 -0.2186715 0.076818228 -0.40768057 -0.24976555 -0.27196604 -0.27064985 -0.093691245 0.5750432 -0.21866849 0.39833567 -0.10194401 0.020325704 -0.046509635 -0.23411468 0.33393696 -0.13111523 0.061176453 -0.16114317 0.20529766 -0.35209787 0.36679965 -0.018313378 -0.014403029 0.20934245 0.22678414 -0.11523318 -0.20597349 -0.26060918 0.18799835 0.15104136 0.31634429 -0.3735787 0.39199913 0.093449898 -0.26399499 0.11180095 -0.053620011 -0.27167824 0.13656802 -0.10657312 -0.2563225 -0.27290127 -0.34889051 0.067738861 0.3273868 -0.3814005 -0.18336467 0.38626468 0.013633378 -0.38900727 0.46174982 -0.021899186 -0.089166738 -0.45840561 -0.14569679 0.052724604 -0.26926386 -0.045501985 -0.0096419528 0.10749352 -0.43013555 0.32177547 -0.16178446 0.31760266 0.022862492 -0.016353901 0.32311663 0.14112234 -0.22208674 -0.25948784 -0.14575399 -0.028716542 0.2689614 0.17377473 -0.25879222 0.022056337 -0.085135534 0.073453493 -0.034927849 0.078782506 -0.18871103 -0.3112784 0.43066916 -0.13440396 -0.27356851 0.20011121 0.10864839 -0.27995887 -0.11581422 -0.31662166 -0.26584446 0.25890037 0.21513464 0.63283658 0.11233544 -0.2681967 -0.21346858 -0.1718398 -0.35636085 -0.18819602 -0.057036705 -0.2854082 -0.070194043 -0.16905621 0.37463853 -0.033835016 0.14424029 -0.1492981 -0.15885277 -0.1172723 -0.17117679 -0.31736484 0.32158679 0.17247871 -0.055942778
49 -0.031195648 -0.28188121 0.22810954 -0.11059164 0.075939849 0.38866141 -0.10361409 -0.28369826 0.42629689 0.21018746 -0.067394815 0.48973873 0.3874118 0.0021148263 0.027423216 -0.38554704 -0.45975387 -0.21214521 0.10687322 0.49986002 -0.095317245 -0.088298626 0.4991298 -0.21455085 0.18171424 0.3640914 -0.51896542 -0.23488294 0.02724023 -0.14085206 -0.035239339 -0.082841568 0.07780198 -0.45356786 0.060381383 -0.28013664 0.077993184 -0.10143306 -0.29477531 0.3766109 -0.011143963 0.07518851 0.037649695 0.070333682 -0.097051822 0.71646184 -0.084915876 -0.2230663 -0.16536896 0.0069779162 -0.34501314 -0.023540063 -0.068607427 0.064828642 -0.33864674 0.32994238 0.080673233 0.22723606 -0.057387892 0.079607926 -0.30578259 -0.27223146 0.11876532 0.025793774 0.082601063 -0.20298393 0.28792086 0.1833588 0.32094145 0.019371033 -0.14479417 -0.25347361 -0.21020636 -0.57159364 0.16977987 -0.17057945 0.1577691 0.19189847 0.11504317 -0.16979982 0.032213148 0.09576086 -0.11441209 0.098091334 -0.21363382 -0.052246183 0.46113062 0.11290817 -0.073856063 0.16303149 0.0059426478 -0.33240342 -0.27029788 0.61659068 -0.22030857 -0.060420148 -0.18704332 -0.062014803 -0.024535077 -0.18080993 0.11833999 0.21568701 -0.46275178 -0.33654481 -0.11276882 0.26569539 -0.22533566 0.40513223 -0.56025338 -0.0079770396 -0.22115421 0.40454006 0.11901261 -0.28513241 -0.2809363 -0.1826679 0.24244113 -0.43046123 -0.43566468 0.11286063 0.033332761 -0.073550463 -0.034142062 -0.002027716 -0.058473777 0.17400892 0.065488376 -0.26597017
39 -0.02504177 -0.3378875 0.13542087 -0.13106683 0.082832471 0.31643441 -0.037979458 -0.20121831 0.45513421 0.30586743 -0.11665135 0.46797338 0.28989515 -0.0245317 -0.033971041 -0.42880353 -0.45201021 -0.30098078 0.066916749 0.50817096 0.02420551 -0.039016414 0.54872489 -0.17317457 0.28760707 0.33998206 -0.41974598 -0.13386244 0.012877739 0.067116655 -7.7540535e-06 -0.023469156 0.047124702 -0.45605606 0.093170412 -0.36018804 0.13208899 -0.065897234 -0.27500132 0.34070003 -0.11910851 0.088801876 0.034265984 0.11632914 -0.1514947 0.72667509 -0.11093051 -0.15790419 -0.12279866 0.05783749 -0.28490412 -0.01420843 -0.026931083 0.056482464 -0.26072934 0.27807012 -0.030432181 0.1983667 -0.063885242 -0.0555586 -0.22254324 -0.35469529 0.046029285 0.091354251 0.10026562 -0.25432405 0.30147025 0.17044879 0.2421973 -0.035695396 -0.22372404 -0.12025364 -0.24718823 -0.53003132 0.2021433 -0.13248529 0.14789139 0.21151231 0.025163522 -0.15656722 -0.0054336931 0.032203056 -0.046168368 0.014316074 -0.31556448 -0.023190955 0.57668465 0.12882492 -0.13276023 0.17178345 -0.0013461864 -0.3864423 -0.071447872 0.48141229 -0.30079511 0.019476149 -0.15696727 -0.020136386 -0.017796252 -0.15811718 -0.056998882 0.33251709 -0.55855924 -0.33812359 -0.05646034 0.20911655 -0.1571278 0.32464394 -0.43178138 -0.085151605 -0.16075459 0.35586956 0.12685694 -0.31197301 -0.32028756 -0.1394798 0.14004001 -0.3459613 -0.36002362 0.11596559 -0.00090477755 -0.23540106 0.013711656 -0.088638023 -0.17044005 0.10552302 -0.078266904 -0.21498367
93 -0.024952415 -0.22146828 0.34082091 -0.33429673 0.30079144 0.68855715 -0.14116302 -0.26312372 0.17495738 0.55991852 0.15412058 0.061471984 0.02847705 0.12775554 0.24408451 0.27846342 -0.083743021 -0.1012237 -0.42257762 -0.55336618 0.3675113 -0.099506751 -0.090745538 -0.44162518 -0.039429419 -0.1214647 -0.15256767 0.25274843 -0.036984891 0.01208836 0.027276024 -0.2720792 -0.21196149 -0.076612704 0.024630647 0.10309324 0.095797859 0.060387053 -0.18997735 0.15304673 0.28438774 -0.04146003 -0.30156624 -0.071067952 -0.0437578 0.053363115 -0.30438432 -0.16688772 0.16115889 -0.025719307 -0.093206421 0.13818985 -0.32817623 0.17049094 -0.30675703 0.049564555 0.18486598 0.44580856 0.057254229 0.35310662 0.20854749 -0.14318022 -0.29402262 0.22524564 -0.17027998 0.4215664 -0.10199003 0.1447168 -0.17740734 -0.50070196 0.087952979 -0.033237722 -0.031709109 -0.51849526 0.15947935 0.0062509887 0.23333246 -0.080157295 0.12279207 -0.12534647 0.50353223 0.14769454 -0.093959436 0.16568947 0.16626993 -0.032588582 0.17775202 -0.22287568 0.56282014 -0.30313289 0.17343545 -0.25024304 -0.27150118 0.027813403 0.087707788 0.42676225 0.24666591 -0.50417948 -0.12874149 -0.0025476208 -0.23866189 -0.030287681 -0.33577743 -0.035730619 0.20394962 0.28534499 -0.25126228 0.11839753 -0.30641755 -0.38236195 -0.10752268 -0.20984986 0.21388541 -0.16156667 0.17636164 -0.32554483 0.33646098 0.20354337 0.22314647 0.085407801 -0.044058636 0.35507476 -0.010107911 0.1529748 -0.39975387 0.58373302 0.028166315 -0.2284552
57 -0.061944991 -0.25398594 0.13292578 -0.16132908 0.093091123 0.29851475 -0.031604473 -0.15987509 0.29932082 0.10831253 -0.078275204 0.29113588 0.398431 -0.016779833 -0.10350071 -0.30474356 -0.43459746 -0.082330622 0.15310119 0.39091042 -0.13053246 -0.010402934 0.43269199 -0.14584588 0.2704908 0.17648304 -0.31409401 -0.046320174 0.052796427 -0.066202007 -0.056828965 -0.1831245 -0.012911303 -0.3507342 0.004411513 -0.1899264 0.010810055 -0.099027351 -0.26972458 0.37193653 0.078776285 0.08514794 0.23591253 0.018934704 -0.17598356 0.57917392 -0.062224004 -0.092409015 -0.037962921 0.078214861 -0.1998971 -0.0023723841 -0.012386383 -0.085011855 -0.3541666 0.20999213 -0.0018495738 0.28768504 -0.14951536 0.044410098 -0.15952264 -0.27428705 -0.016411824 0.078771897 0.041458353 -0.14322889 0.22937281 0.07284683 0.27587554 0.062470138 -0.13909368 -0.19970533 -0.082333587 -0.51477176 0.081149645 -0.22027247 0.2009396 -0.036103044 0.13680027 -0.061198987 0.10104547 0.057594337 -0.20942901 0.10667003 -0.11532962 -0.067685142 0.37355497 0.051878799 0.089956805 0.13113679 0.09065742 -0.22296615 -0.30418974 0.54926813 -0.20402607 -0.057556722 -0.13186093 -0.20164877 0.0019194521 -0.074142925 -0.023704764 0.27341703 -0.33998626 -0.22602245 -0.1930269 0.25264901 -0.11872081 0.43152606 -0.40970799 0.059984803 -0.1761523 0.28056428 0.12464993 -0.16791174 -0.27730316 -0.076136783 0.22901939 -0.23429112 -0.37382576 0.092146382 -0.040427819 -0.033134032 0.0055598747 0.033755854 -0.098455533 0.21279505 -0.080461629 -0.12387425
42 -0.44177181 -0.32111645 0.0084181922 -0.015115066 0.26443315 0.01493096 0.18628217 -0.085709155 0.11157802 0.21277526 0.1679185 0.30266404 0.016176311 -0.18574654 0.01823397 -0.44065702 -0.29828301 -0.20375182 -0.17713991 0.14438395 0.43280149 -0.22106141 0.51352787 -0.065518439 0.1436094 -0.04996546 -0.34558001 0.25322071 -0.17683947 0.06168174 -0.14474133 0.19771288 -0.35255468 0.28812391 -0.017477432 0.0029516723 0.13407333 0.16841632 -0.22996905 -0.15296651 -0.26383221 0.29803142 0.26957506 0.22016494 -0.39890176 0.40789041 0.17875578 -0.16650026 0.053519759 -0.044889979 -0.17509055 0.14627786 -0.072901055 -0.29843557 -0.26117957 -0.33020598 0.15362036 0.2809653 -0.41514912 -0.27180904 0.24071157 0.049892928 -0.33988571 0.36914721 0.0052258149 -0.2046051 -0.43279094 -0.11836755 0.20393522 -0.055499781 -0.038985476 -0.084469706 0.059815645 -0.44920573 0.24975306 -0.2482512 0.21675503 0.032039553 0.048922561 0.41597667 0.17209645 -0.24778087 -0.31715608 -0.12674662 0.067535646 0.21973088 0.20610642 -0.18014368 -0.091348492 0.0080063557 -0.020769194 -0.036517423 -0.049652599 -0.016061505 -0.32081217 0.36517394 -0.19808219 -0.18419352 0.17724381 0.099517286 -0.2305584 -0.086610436 -0.34265742 -0.31268159 0.2142114 0.24598405 0.62693042 0.19782302 -0.31756291 0.0043352642 -0.16193129 -0.26521644 -0.19115849 -0.043702919 -0.38672942 -0.064437456 -0.14945267 0.178762 -0.10929844 0.19531287 -0.05079772 -0.18769099 -0.10623356 -0.088472642 -0.19166745 0.34471199 0.14787662 -0.10386198
3 -0.34504843 -0.46811327 0.10355258 -0.23147517 0.098569855 -0.011979531 0.064802743 -0.090650894 0.092968561 0.095016845 0.13740666 0.3819305 -0.024199527 -0.27197477 0.068194665 -0.58699065 -0.24886282 -0.34390169 0.034536321 -0.093122877 0.46027598 0.19202918 0.32574886 0.21490128 -0.03383404 -0.043816309 -0.019053908 0.18459001 0.089354306 0.087592229 -0.1331436 0.040819727 -0.25658453 0.15548138 0.035208948 -0.31639639 0.23860699 0.14288504 -0.032432325 -0.040460214 -0.24840987 -0.067362726 0.40432578 0.53682441 -0.26042673 0.53007883 0.051493183 -0.26107955 -0.059168529 0.068790376 -0.24497755 0.061935812 -0.027234031 0.025517736 -0.57542557 -0.2514011 -0.069063112 0.33184174 -0.33291733 0.03656096 0.22307213 -0.25462422 -0.14010887 0.26058885 -0.17449778 -0.092061207 -0.0035515898 -0.031264357 0.019714419 -0.39249668 -0.11592991 -0.053659275 0.061744906 -0.33249724 0.42038846 -0.14772564 0.41560897 -0.060683034 -0.095553674 -0.20756148 -0.28757584 -0.19928205 -0.073632479 -0.1013299 -0.4802025 0.14912748 0.33875665 -0.14034997 0.077586614 0.011539272 0.13897198 -0.017853759 0.14391068 -0.11594928 -0.569282 0.1605663 -0.2862376 -0.25385198 0.25681081 0.29091513 -0.27222186 0.13585128 -0.26506129 -0.19718128 -0.20795926 0.080023967 0.55342293 0.41802141 -0.10184378 -0.29509643 -0.13202631 -0.019108234 -0.0055974131 0.0023618913 -0.4011609 0.12004783 -0.017175606 0.39367065 -0.33354259 -0.011356702 -0.10452683 -0.32873711 0.010330363 -0.48251733 -0.39780292 0.083917297 0.0066476683 0.34260055
20 -0.44694772 -0.43185204 0.067263901 -0.15098254 0.21661448 0.062346514 0.1152595 -0.096782774 0.05720786 0.20179059 0.24727008 0.31164783 -0.069091208 -0.24892724 0.084605508 -0.43772498 -0.24503464 -0.26056126 -0.21187229 -0.19471931 0.59036481 -0.13152725 0.35231841 -0.022616427 -0.049907565 -0.078193024 -0.14984755 0.34380379 -0.072020993 0.019024417 -0.183129 0.147368 -0.36924931 0.39263386 -0.016069729 -0.044291303 0.22033633 0.21652639 -0.074138351 -0.20621386 -0.24204247 0.1100989 0.22875887 0.38316107 -0.35784623 0.39336428 0.085182153 -0.28262118 0.10670434 -0.042814627 -0.28576592 0.12966415 -0.10338318 -0.22090702 -0.38668033 -0.36521858 0.056396507 0.36875096 -0.41973725 -0.085585885 0.40781194 -0.020199228 -0.37901369 0.44740513 -0.10015436 -0.04272062 -0.40544462 -0.14419319 0.0077998214 -0.32303616 -0.039800785 -0.030171171 0.14576875 -0.40495175 0.35109451 -0.14882639 0.3774561 -0.052170631 -0.017631849 0.21603546 0.068637595 -0.2384095 -0.24454762 -0.14268531 -0.10519902 0.26165968 0.15500669 -0.28067413 0.10018936 -0.10058054 0.1170821 0.014984583 0.069474608 -0.21429767 -0.35614288 0.37970006 -0.15931557 -0.33729199 0.22128353 0.20037346 -0.2937561 -0.10594305 -0.25902906 -0.22062574 0.15155712 0.20453788 0.6688478 0.2021486 -0.21820349 -0.2413298 -0.17586023 -0.32773197 -0.14790134 -0.0050664344 -0.30439785 -0.030633684 -0.12173849 0.46352169 -0.10255614 0.091941878 -0.15795051 -0.1549907 -0.10736398 -0.25491151 -0.34304619 0.3023403 0.14148653 0.057434253
67 -0.02935355 -0.19809072 0.1595659 -0.19883507 0.13579899 0.39072916 -0.038740098 -0.16441837 0.27574483 0.090882652 -0.076821491 0.19690944 0.46564338 0.038764026 -0.10344157 -0.16741897 -0.41554579 0.01164515 0.14382169 0.31041959 -0.20606263 -0.021953082 0.3405374 -0.2050962 0.2951498 0.11258883 -0.29545125 -0.026218895 0.061508153 -0.098119147 -0.043246321 -0.30023608 -0.029057449 -0.38120019 -0.023637125 -0.1076588 -0.041341353 -0.11756208 -0.28837374 0.4344036 0.21063305 0.086875305 0.2419647 -0.089962378 -0.16064851 0.48950529 -0.088901266 -0.046106473 0.012333332 0.087303251 -0.1478283 0.00020242645 -0.026877262 -0.10906859 -0.3712348 0.23926014 0.025184443 0.31691709 -0.12245696 0.11581977 -0.13591434 -0.26716924 -0.032458909 0.067913681 0.014483123 -0.033167392 0.23071681 0.070868827 0.29583308 0.093250483 -0.092561021 -0.22753716 -0.035496362 -0.54189813 -0.00034613418 -0.23757085 0.19918251 -0.12675239 0.20367472 -0.044915121 0.23229147 0.11689887 -0.28264222 0.18954906 -0.001088172 -0.11532484 0.31061259 0.033273131 0.23905858 0.094234101 0.13390963 -0.2001639 -0.44970113 0.61664122 -0.11002194 -0.066857018 -0.059749994 -0.31546047 -0.039322693 -0.075261354 -0.020013763 0.27255252 -0.27568749 -0.14194378 -0.21720058 0.27142116 -0.22687387 0.44500536 -0.42462608 0.092050768 -0.18640618 0.2630676 0.16543217 -0.13662504 -0.20591342 -0.089229189 0.3057586 -0.22786292 -0.3285386 0.095226727 -0.042982154 0.12548055 0.027104389 0.16292065 -0.079352759 0.31417811 -0.088969603 -0.13779965
29 0.076979183 -0.34868887 0.14783989 -0.17109184 0.053565461 0.3721576 -0.089694493 -0.22140865 0.50659096 0.39781886 -0.12355802 0.48090068 0.22292402 0.0027255393 0.025987215 -0.35881433 -0.38936004 -0.37038448 0.0083429059 0.41466236 0.069489114 -0.029859312 0.45197028 -0.21631064 0.24037488 0.3965666 -0.38116452 -0.14992364 0.043262597 0.11395797 0.047629833 -0.0057179104 0.11847706 -0.51513898 0.10490914 -0.41677871 0.18294758 -0.059810311 -0.21350403 0.35598943 -0.11694778 0.020210687 -0.14707825 0.13161528 -0.074167304 0.70836139 -0.21283327 -0.19936787 -0.13029362 0.059776951 -0.33105004 -0.040424697 -0.054301247 0.18577309 -0.20854527 0.34382871 -0.075452797 0.15702562 0.053268839 -0.0036940156 -0.21737079 -0.42182913 0.07507088 0.081976876 0.11852081 -0.1914762 0.36258692 0.21557665 0.1431146 -0.1479643 -0.25695691 -0.044458844 -0.29807076 -0.50437987 0.2431446 -0.044058718 0.15400311 0.28602636 -0.038843263 -0.27095562 -0.050144419 0.10173866 0.072367229 0.01480318 -0.4131273 -0.01795668 0.62172198 0.12879871 -0.11667736 0.12811488 0.020314962 -0.46078324 0.03543115 0.40220949 -0.27280691 0.050448764 -0.081786402 0.0064365654 -0.043307435 -0.2369224 -0.066024661 0.35263491 -0.60472506 -0.31569088 0.0012652826 0.16554853 -0.28768614 0.20759474 -0.3908014 -0.22201042 -0.13728641 0.36752895 0.15679817 -0.37181535 -0.22153455 -0.17057651 0.15327606 -0.33063704 -0.26945019 0.086373195 -0.022611674 -0.23670878 0.026682464 -0.13364829 -0.24772555 0.049226094 -0.082978122 -0.23996751
46 -0.20047288 -0.27915728 0.070055805 -0.086702786 0.13554877 0.087230705 0.11874128 -0.091419823 0.20220466 0.10914671 -0.066466182 0.25492415 0.28444114 -0.045645554 -0.12153263 -0.42308894 -0.36419961 -0.14740179 0.12359625 0.39934182 0.030377878 0.049317691 0.52720821 0.05393301 0.36287612 0.0045306003 -0.25403026 -0.0044114883 -0.04832321 0.064022064 -0.055162005 -0.10294425 -0.16035219 -0.24001816 0.034869153 -0.18186884 0.033653785 -0.051338911 -0.30253345 0.21187742 -0.10006378 0.16195799 0.43386477 0.10172467 -0.29267606 0.53194243 0.08644709 -0.00396705 -0.068332128 0.099025004 -0.024443852 0.085306704 0.013727025 -0.12572984 -0.3707802 -0.015875466 0.065477587 0.23962411 -0.30097827 -0.11668631 -0.092323638 -0.24765186 -0.072666503 0.098899908 -0.062565587 -0.22948524 0.085246511 0.049351916 0.29220998 0.073524654 -0.15409884 -0.18127453 -0.081143796 -0.46334684 0.15752886 -0.32304242 0.14757185 -0.04611766 0.08382874 0.029744521 0.04258794 -0.13074642 -0.22447307 -0.0034860633 -0.092693083 -0.036699507 0.40432009 0.055071559 -0.029828554 0.18468378 -0.011135131 -0.18458946 -0.20808782 0.43276483 -0.3417474 0.055238578 -0.20973276 -0.12165008 0.057373196 0.1196161 -0.16841185 0.24961293 -0.36214274 -0.24592498 -0.17981027 0.24088384 0.1969427 0.48640531 -0.28479666 0.17856377 -0.13638419 0.18745476 0.06709709 -0.10028858 -0.44660071 -0.025479924 0.13666868 -0.1437548 -0.36083704 0.15154348 0.034488577 -0.20548789 0.0406591 -0.078787632 -0.14024942 0.2638889 -0.14565752 0.0061754626
4 -0.21040617 -0.40239459 0.055227842 -0.18406613 0.091264464 -0.0043585189 0.10948692 -0.085779659 0.1591749 0.15492292 0.033743154 0.32744992 -0.0067006471 -0.16471586 0.065971456 -0.51316673 -0.21311438 -0.3932474 0.011064226 0.034504458 0.39843428 0.21529484 0.33457205 0.20779341 0.13056958 -0.027348995 -0.059712574 0.075017065 0.026050394 0.19724554 -0.051750567 0.046350274 -0.18054147 -0.058342725 0.086753681 -0.35781011 0.21979612 0.10316771 -0.11272033 0.027495472 -0.27294508 -0.03511348 0.32639864 0.42693323 -0.21245809 0.50830656 0.043180749 -0.16714558 -0.10157179 0.10762383 -0.12927471 0.073615216 -0.001567924 0.10292703 -0.41862702 -0.18259317 -0.076537155 0.18272668 -0.18672216 -0.064662509 0.13264169 -0.30554777 -0.031503089 0.15890759 -0.12598629 -0.12799457 0.094407625 0.050340593 0.060488217 -0.31439117 -0.16233204 -0.010882999 -0.060248014 -0.32711121 0.3877947 -0.19086435 0.27973232 0.038875483 -0.14999071 -0.24338302 -0.27980164 -0.14656635 0.014658524 -0.07370802 -0.45488909 0.060211878 0.44679692 -0.031291161 -0.025353543 0.10262427 0.052464455 -0.13779198 0.188218 -0.020310296 -0.55280048 0.16712017 -0.22957806 -0.12753616 0.20225947 0.2220023 -0.27457625 0.2257397 -0.34552014 -0.18466084 -0.20545608 0.048126422 0.37365535 0.36377054 -0.06738434 -0.22723925 -0.083540469 0.073374271 0.022821385 -0.069712162 -0.39101323 0.12019299 0.025288206 0.2177048 -0.26380461 0.039891895 -0.016661249 -0.35587564 0.087683648 -0.44578993 -0.41472048 0.082282439 -0.066422023 0.30112571
43 -0.39283156 -0.28702226 0.010262155 -0.0029686675 0.23821338 -0.013691719 0.1860974 -0.076769598 0.12920831 0.1683549 0.10219762 0.29814908 0.075366348 -0.16684274 -0.016130583 -0.44162253 -0.30895397 -0.16628546 -0.091220826 0.25052112 0.3240234 -0.14779459 0.52533209 -0.026648825 0.1893677 -0.026227612 -0.33122209 0.17658608 -0.15095204 0.079313971 -0.10923953 0.15697978 -0.31882554 0.18135987 -0.00059667649 -0.036551993 0.10293701 0.12247076 -0.24689178 -0.071892545 -0.22864853 0.28584418 0.33380261 0.19008817 -0.37387908 0.41482344 0.18121386 -0.10873738 0.006791512 -0.015636651 -0.12469395 0.136191 -0.040864203 -0.25365603 -0.28278345 -0.27123669 0.15078923 0.24991041 -0.39278579 -0.26267484 0.13521056 -0.0087141441 -0.25519672 0.29203033 -0.0080332821 -0.24346939 -0.29629937 -0.077949107 0.25623456 0.0257887 -0.051611591 -0.098718092 0.014487845 -0.42528462 0.21079244 -0.25772583 0.17727488 0.022730434 0.070153452 0.33977836 0.13134721 -0.22491083 -0.27986088 -0.098294377 0.020188268 0.14818421 0.24574494 -0.092914142 -0.11422122 0.060793854 -0.039245836 -0.054997806 -0.08430399 0.094339892 -0.33021048 0.27186608 -0.21578369 -0.11967863 0.14279377 0.11331774 -0.20089696 0.0018390657 -0.3392002 -0.28945744 0.11192255 0.22272311 0.52103657 0.25426081 -0.28848493 0.071018405 -0.14812791 -0.13854104 -0.14195642 -0.043998279 -0.41470703 -0.051628258 -0.10830766 0.069809802 -0.17738633 0.19213517 -0.0039143693 -0.22131057 -0.062588133 -0.077578388 -0.13708122 0.29695249 0.082708545 -0.07938277
5 -0.18788211 -0.3966735 0.018852228 -0.15363504 0.10734708 -0.023792209 0.15462074 -0.082185373 0.19798516 0.20670053 -0.0066962745 0.32565293 -0.018453753 -0.13455836 0.063332587 -0.51203954 -0.21028209 -0.42397013 -0.018149544 0.11053409 0.412673 0.20595153 0.38623685 0.21253569 0.21048686 -0.027100479 -0.093922079 0.047299277 -0.024470922 0.26762596 -0.01942439 0.079148233 -0.18299757 -0.11272064 0.10613114 -0.37234721 0.22182474 0.094090886 -0.15936267 0.029738126 -0.31377235 0.012441386 0.29885685 0.39022002 -0.23097576 0.51513398 0.057667144 -0.11803853 -0.11180916 0.1197262 -0.08485736 0.10052025 0.010071167 0.10410227 -0.35426632 -0.18542081 -0.06064136 0.13401689 -0.17013474 -0.13699037 0.097210415 -0.32701418 -0.022252515 0.15880972 -0.11568604 -0.17514566 0.099614784 0.072322108 0.086574644 -0.28167009 -0.18476565 0.011452233 -0.11401483 -0.3405095 0.3931686 -0.21311912 0.21695849 0.078996345 -0.16075446 -0.21712744 -0.26123005 -0.15526165 0.033813164 -0.093126677 -0.443553 0.050961167 0.49803463 0.013364637 -0.088550866 0.13084793 0.01494254 -0.1864724 0.21724662 0.0057884497 -0.56289709 0.2041146 -0.21318175 -0.071602359 0.18676066 0.20525743 -0.30695808 0.25383386 -0.41844201 -0.20830068 -0.15833405 0.049922559 0.36536035 0.3306748 -0.06009857 -0.1864713 -0.072287798 0.084063753 0.021362301 -0.10140474 -0.41624695 0.10298279 0.016081803 0.15602227 -0.22580369 0.078297898 0.016992943 -0.39969939 0.11266511 -0.43296999 -0.41403598 0.096298404 -0.10843246 0.26453391
41 -0.50851959 -0.37648723 0.047625303 -0.048251744 0.29900458 0.076861903 0.17577152 -0.12009298 0.089593597 0.2061395 0.23316419 0.32172486 0.01433572 -0.21602127 0.040738497 -0.43452865 -0.32075581 -0.19172564 -0.23176552 0.035038315 0.49319759 -0.27729148 0.4928726 -0.12298811 0.073171966 -0.061017726 -0.3544867 0.32451382 -0.16987365 -0.012417799 -0.19072466 0.19214602 -0.40909174 0.38732293 -0.039755564 0.058751937 0.15106204 0.20396097 -0.2120308 -0.1837028 -0.22042862 0.28401181 0.26849255 0.24066389 -0.43554825 0.41976324 0.1730825 -0.23212002 0.10488938 -0.074265018 -0.24295399 0.1579124 -0.1165353 -0.35622892 -0.31382719 -0.37192178 0.1706631 0.37586328 -0.46560216 -0.22517574 0.32500911 0.08621233 -0.41479611 0.451487 -0.020565838 -0.14634538 -0.52377284 -0.16123699 0.18423972 -0.11553153 -0.011597478 -0.10559111 0.12206808 -0.50019437 0.26583952 -0.25350425 0.30239043 -0.01555712 0.077242441 0.4577308 0.24073298 -0.25256178 -0.37799057 -0.12288371 0.12012493 0.24668542 0.15235013 -0.25024053 0.002352908 -0.052452102 0.02346226 -0.0045823595 -0.083467349 -0.051375329 -0.30398399 0.41757077 -0.19135079 -0.27789831 0.1963374 0.12766916 -0.24146506 -0.15232714 -0.30720726 -0.31801179 0.24969573 0.29521671 0.67980957 0.20740303 -0.3757785 -0.049464289 -0.20744456 -0.34630898 -0.21760681 -0.037558518 -0.36886728 -0.098344266 -0.1489792 0.27881992 -0.099379212 0.19068731 -0.1079762 -0.12665065 -0.14649357 -0.070838191 -0.22558768 0.41952586 0.20793414 -0.12919493
